{"learner":{"attributes":{"scikit_learn":"{\"_estimator_type\": \"classifier\"}"},"feature_names":[],"feature_types":[],"gradient_booster":{"model":{"gbtree_model_param":{"num_parallel_tree":"1","num_trees":"100"},"iteration_indptr":[0,1,2,3,4,5,6,7,8,9,10,11,12,13,14,15,16,17,18,19,20,21,22,23,24,25,26,27,28,29,30,31,32,33,34,35,36,37,38,39,40,41,42,43,44,45,46,47,48,49,50,51,52,53,54,55,56,57,58,59,60,61,62,63,64,65,66,67,68,69,70,71,72,73,74,75,76,77,78,79,80,81,82,83,84,85,86,87,88,89,90,91,92,93,94,95,96,97,98,99,100],"tree_info":[0,0,0,0,0,0,0,0,0,0,0,0,0,0,0,0,0,0,0,0,0,0,0,0,0,0,0,0,0,0,0,0,0,0,0,0,0,0,0,0,0,0,0,0,0,0,0,0,0,0,0,0,0,0,0,0,0,0,0,0,0,0,0,0,0,0,0,0,0,0,0,0,0,0,0,0,0,0,0,0,0,0,0,0,0,0,0,0,0,0,0,0,0,0,0,0,0,0,0,0],"trees":[{"base_weights":[-1.0787001E0,-1.0907289E0,4.8354962E-1,-1.1103265E0,-7.9763913E-1,-1.13722146E-1,8.124776E-1,-1.1232291E0,-9.5769674E-1,-8.923701E-1,1.4357331E0,-1.1256937E0,5.297009E0,6.8780804E0,-1.1360191E0,-1.0059032E0,5.98918E-1,-1.13307156E-1,7.5544047E0,-1.1267083E0,4.8028523E-1,-1.0030872E-1,6.945763E0,7.66628E0,-1.071262E-1,-6.185089E-1,-1.1362747E-1,-1.138579E-1,-7.590615E-1,8.072966E-1,-1.1358457E-1,8.0067205E-1,-9.1417335E-2,-1.1388475E-1,-1.1074361E0,-1.1104518E-1,3.5057316E0,7.8837335E-1,-8.539982E-2,7.9310274E0,-6.0910594E-1,3.7700664E-2,-9.093245E-2,-9.627325E-1,6.0453254E-1,-1.1247865E0,-9.508569E-1,7.473967E-1,-1.0317904E-1,2.7067034E0,8.0044603E-1,-9.0426184E-2,3.7700664E-2,-6.976675E-1,-1.1282037E0,2.8853462E0,-1.1316623E-1,-4.831408E-1,-1.1254157E0,-5.2934134E-1,-1.1380156E-1,3.9361972E-1,2.349378E-2,-9.5301074E-1,-2.7068183E-2,-1.1369616E-1,-4.8181975E-1,1.5889834E0,6.5276194E0,2.3658255E-1,-9.651791E-2,-1.1326041E-1,-1.08958445E-1,-7.138715E-2,4.7098014E-1,-3.1229738E-2,-1.1360339E-1,9.330985E-2,-1.1265891E-1,2.532161E-1,-1.0625287E-1,2.9017007E-1,-1.0686099E-1,4.6289077E-1,7.3079914E-1],"categories":[],"categories_nodes":[],"categories_segments":[],"categories_sizes":[],"default_left":[0,0,0,0,0,0,0,0,0,0,0,0,0,0,0,0,0,0,0,0,0,0,0,0,0,0,0,0,0,0,0,0,0,0,0,0,0,0,0,0,0,0,0,0,0,0,0,0,0,0,0,0,0,0,0,0,0,0,0,0,0,0,0,0,0,0,0,0,0,0,0,0,0,0,0,0,0,0,0,0,0,0,0,0,0],"id":0,"left_children":[1,3,5,7,9,-1,-1,11,13,15,17,19,21,23,25,27,29,-1,31,33,35,-1,37,39,-1,41,-1,-1,43,-1,-1,-1,-1,-1,45,-1,47,-1,-1,49,51,-1,-1,53,55,57,59,-1,-1,61,-1,-1,-1,63,65,67,-1,69,71,73,-1,-1,-1,75,77,-1,79,81,83,-1,-1,-1,-1,-1,-1,-1,-1,-1,-1,-1,-1,-1,-1,-1,-1],"loss_changes":[2.0591328E3,6.2353125E2,1.0384193E4,1.9957812E2,1.443544E3,0E0,0E0,1.4924766E3,1.1115017E4,1.1079277E3,4.374409E3,1.5357031E2,3.8324628E2,1.1173447E3,3.251953E-1,1.9818506E2,6.016353E3,0E0,3.2242773E2,2.0695312E1,2.9262375E2,0E0,2.1770471E2,3.5793945E2,0E0,2.089191E0,0E0,0E0,5.9151587E2,0E0,0E0,0E0,0E0,0E0,9.756641E1,0E0,3.8429486E2,0E0,0E0,3.8277344E1,2.0654423E0,0E0,0E0,8.0427246E1,1.1006609E3,1.26484375E1,2.8562744E2,0E0,0E0,1.0248688E1,0E0,0E0,0E0,1.2228201E2,5.8964844E0,5.565063E2,0E0,4.8649662E1,7.1757812E0,1.0837285E3,0E0,0E0,0E0,6.030371E1,2.1008696E2,0E0,3.236225E1,3.1661078E2,1.2390381E1,0E0,0E0,0E0,0E0,0E0,0E0,0E0,0E0,0E0,0E0,0E0,0E0,0E0,0E0,0E0,0E0],"parents":[2147483647,0,0,1,1,2,2,3,3,4,4,7,7,8,8,9,9,10,10,11,11,12,12,13,13,14,14,15,15,16,16,18,18,19,19,20,20,22,22,23,23,25,25,28,28,34,34,36,36,39,39,40,40,43,43,44,44,45,45,46,46,49,49,53,53,54,54,55,55,57,57,58,58,59,59,63,63,64,64,66,66,67,67,68,68],"right_children":[2,4,6,8,10,-1,-1,12,14,16,18,20,22,24,26,28,30,-1,32,34,36,-1,38,40,-1,42,-1,-1,44,-1,-1,-1,-1,-1,46,-1,48,-1,-1,50,52,-1,-1,54,56,58,60,-1,-1,62,-1,-1,-1,64,66,68,-1,70,72,74,-1,-1,-1,76,78,-1,80,82,84,-1,-1,-1,-1,-1,-1,-1,-1,-1,-1,-1,-1,-1,-1,-1,-1],"split_conditions":[2.039512E6,4.07E2,1.3039886E6,1E0,5.865683E5,-1.13722146E-1,8.124776E-1,9.6160625E5,4.73791E3,1E0,5.83589E5,7.513217E5,9.482039E5,2.11433E3,5.2883E2,1E0,4.73791E3,-1.13307156E-1,3.9909E2,1E0,7.31114E5,-1.0030872E-1,2.0326648E6,3.9909E2,-1.071262E-1,1.31E2,-1.1362747E-1,-1.138579E-1,1.101E5,8.072966E-1,-1.1358457E-1,8.0067205E-1,-9.1417335E-2,-1.1388475E-1,1.13631E5,-1.1104518E-1,3.9909E2,7.8837335E-1,-8.539982E-2,1.72046E3,9.26009E4,3.7700664E-2,-9.093245E-2,1.0157426E5,3.9909E2,8E0,3.9909E2,7.473967E-1,-1.0317904E-1,1.38805E3,8.0044603E-1,-9.0426184E-2,3.7700664E-2,2.1639E4,1.03561E5,2.6162775E5,-1.1316623E-1,3.819175E4,3.1202E4,4.16141E5,-1.1380156E-1,3.9361972E-1,2.349378E-2,2.160751E4,3.9909E2,-1.1369616E-1,1.09118E5,2.5975808E5,3.29672E5,2.3658255E-1,-9.651791E-2,-1.1326041E-1,-1.08958445E-1,-7.138715E-2,4.7098014E-1,-3.1229738E-2,-1.1360339E-1,9.330985E-2,-1.1265891E-1,2.532161E-1,-1.0625287E-1,2.9017007E-1,-1.0686099E-1,4.6289077E-1,7.3079914E-1],"split_indices":[1,0,2,10,1,0,0,1,5,10,2,1,2,4,1,7,5,0,3,7,2,0,2,3,0,0,0,0,2,0,0,0,0,0,2,0,3,0,0,2,2,0,0,1,3,0,3,0,0,1,0,0,0,2,2,2,0,4,2,2,0,0,0,1,3,0,1,1,2,0,0,0,0,0,0,0,0,0,0,0,0,0,0,0,0],"split_type":[0,0,0,0,0,0,0,0,0,0,0,0,0,0,0,0,0,0,0,0,0,0,0,0,0,0,0,0,0,0,0,0,0,0,0,0,0,0,0,0,0,0,0,0,0,0,0,0,0,0,0,0,0,0,0,0,0,0,0,0,0,0,0,0,0,0,0,0,0,0,0,0,0,0,0,0,0,0,0,0,0,0,0,0,0],"sum_hessian":[1.0954618E5,1.0870945E5,8.3672485E2,1.0189349E5,6.815962E3,6.910073E2,1.4571753E2,9.3945414E4,7.948083E3,6.539195E3,2.7676697E2,9.391019E4,3.5224884E1,1.7601736E2,7.772066E3,6.0768813E3,4.6231323E2,1.9550346E2,8.126349E1,9.3851195E4,5.8993652E1,7.38759E0,2.7837296E1,1.6017151E2,1.5845845E1,5.0321264E0,7.7670337E3,3.950112E3,2.1267693E3,8.640268E1,3.7591055E2,7.719496E1,4.0685277E0,5.754622E4,3.6304973E4,3.907928E1,1.9914373E1,2.4839432E1,2.9978626E0,1.5524646E2,4.92506E0,1.0706652E0,3.9614613E0,1.8506448E3,2.7612454E2,3.2677771E4,3.6271995E3,1.0278386E1,9.635986E0,2.676663E0,1.525698E2,3.8543947E0,1.0706652E0,7.1327716E2,1.1373677E3,1.1905797E2,1.5706659E2,3.2762356E1,3.264501E4,1.1164896E3,2.51071E3,1.3918648E0,1.2847983E0,5.162748E2,1.970024E2,1.1214147E3,1.5952911E1,8.886521E1,3.0192759E1,4.1755943E0,2.8586761E1,2.7164596E4,5.480414E3,1.0793375E3,3.715208E1,1.1531064E2,4.009641E2,1.0524639E2,9.1756004E1,2.0342638E0,1.3918648E1,5.9421917E1,2.9443293E1,1.0813719E1,1.937904E1],"tree_param":{"num_deleted":"0","num_feature":"11","num_nodes":"85","size_leaf_vector":"1"}},{"base_weights":[-1.0604684E0,-1.0730196E0,3.652691E-1,-1.0936431E0,-7.728961E-1,-1.1221677E-1,4.1665444E-1,-1.1071805E0,-9.3589324E-1,-9.236614E-1,4.2025003E-1,-1.1103023E0,2.6894097E0,3.764717E0,-1.1208506E0,-9.8020285E-1,3.428764E0,4.1842586E-1,-1.1222356E-1,-1.1108477E0,-1.1837116E-2,-1.05499744E-1,3.7176738E0,4.0330963E0,-1.05263904E-1,-5.9067535E-1,-1.1211248E-1,-1.1236137E-1,-7.2241646E-1,-9.9845566E-2,3.981118E0,-1.1238984E-1,-1.0901803E0,-1.0848641E-1,1.8763602E0,4.201238E-1,-9.4132066E-2,4.1183186E0,-5.8145225E-1,4.0235408E-2,-8.9232974E-2,-9.374873E-1,5.346197E-1,4.1665587E-1,-7.848915E-2,-1.1087472E0,-9.2497104E-1,3.9505836E-1,-9.777319E-2,1.2550683E-1,4.1304204E-1,-8.817091E-2,3.519993E-2,-6.6573364E-1,-1.1125082E0,2.1117928E0,-1.1162639E-1,-4.531215E-1,-1.109422E0,-5.0000036E-1,-1.1230073E-1,-9.309867E-1,-3.862402E-2,-1.1218854E-1,-4.4941422E-1,9.604682E-1,3.5483677E0,1.8727599E-1,-9.400185E-2,-1.0872009E-1,-1.1229515E-1,-7.558921E-2,2.3131238E-1,-2.7026135E-2,-1.1210378E-1,7.4920446E-2,-1.1111587E-1,2.0655282E-1,-1.04352795E-1,2.651712E-1,-1.0972728E-1,2.7350357E-1,3.992057E-1],"categories":[],"categories_nodes":[],"categories_segments":[],"categories_sizes":[],"default_left":[0,0,0,0,0,0,0,0,0,0,0,0,0,0,0,0,0,0,0,0,0,0,0,0,0,0,0,0,0,0,0,0,0,0,0,0,0,0,0,0,0,0,0,0,0,0,0,0,0,0,0,0,0,0,0,0,0,0,0,0,0,0,0,0,0,0,0,0,0,0,0,0,0,0,0,0,0,0,0,0,0,0,0],"id":1,"left_children":[1,3,5,7,9,-1,-1,11,13,15,17,19,21,23,25,27,29,-1,-1,31,33,-1,35,37,-1,39,-1,-1,41,-1,43,-1,45,-1,47,-1,-1,49,51,-1,-1,53,55,-1,-1,57,59,-1,-1,-1,-1,-1,-1,61,63,65,-1,67,69,71,-1,73,75,-1,77,79,81,-1,-1,-1,-1,-1,-1,-1,-1,-1,-1,-1,-1,-1,-1,-1,-1],"loss_changes":[1.8060703E3,6.182656E2,4.987639E3,1.9883594E2,1.1579253E3,0E0,0E0,1.0245469E3,6.4407456E3,1.4093604E3,4.1999253E3,5.1585938E1,2.7769763E2,3.6690234E2,3.7304688E-1,2.0772607E2,1.8368872E2,0E0,0E0,2.1984375E1,9.0672005E1,0E0,1.301352E2,1.0696484E2,0E0,2.0953815E0,0E0,0E0,5.4638135E2,0E0,6.1194702E1,0E0,1.0127344E2,0E0,9.987773E1,0E0,0E0,3.8671875E0,1.90738E0,0E0,0E0,8.128198E1,7.720948E2,0E0,0E0,1.2761719E1,2.835039E2,0E0,0E0,0E0,0E0,0E0,0E0,1.1275418E2,6.008789E0,2.4722614E2,0E0,3.857779E1,7.7773438E0,7.753916E2,0E0,5.9527344E1,1.7201973E2,0E0,2.6472359E1,3.0042816E2,1.3275879E1,0E0,0E0,0E0,0E0,0E0,0E0,0E0,0E0,0E0,0E0,0E0,0E0,0E0,0E0,0E0,0E0],"parents":[2147483647,0,0,1,1,2,2,3,3,4,4,7,7,8,8,9,9,10,10,11,11,12,12,13,13,14,14,15,15,16,16,19,19,20,20,22,22,23,23,25,25,28,28,30,30,32,32,34,34,37,37,38,38,41,41,42,42,45,45,46,46,53,53,54,54,55,55,57,57,58,58,59,59,61,61,62,62,64,64,65,65,66,66],"right_children":[2,4,6,8,10,-1,-1,12,14,16,18,20,22,24,26,28,30,-1,-1,32,34,-1,36,38,-1,40,-1,-1,42,-1,44,-1,46,-1,48,-1,-1,50,52,-1,-1,54,56,-1,-1,58,60,-1,-1,-1,-1,-1,-1,62,64,66,-1,68,70,72,-1,74,76,-1,78,80,82,-1,-1,-1,-1,-1,-1,-1,-1,-1,-1,-1,-1,-1,-1,-1,-1],"split_conditions":[2.039512E6,4.07E2,1.3039886E6,1E0,1E0,-1.1221677E-1,4.1665444E-1,8.441167E5,4.73791E3,6.282749E5,4.73791E3,7.513217E5,6.238168E5,2.11433E3,5.2883E2,1E0,6.238168E5,4.1842586E-1,-1.1222356E-1,1E0,7.31114E5,-1.05499744E-1,3.9909E2,3.9909E2,-1.05263904E-1,9.289553E4,-1.1211248E-1,-1.1236137E-1,1.101E5,-9.9845566E-2,3.9909E2,-1.1238984E-1,1.13631E5,-1.0848641E-1,3.9909E2,4.201238E-1,-9.4132066E-2,1.77E2,9.26009E4,4.0235408E-2,-8.9232974E-2,1.0157426E5,3.9909E2,4.1665587E-1,-7.848915E-2,8E0,3.9909E2,3.9505836E-1,-9.777319E-2,1.2550683E-1,4.1304204E-1,-8.817091E-2,3.519993E-2,2.1307E4,1.03561E5,2.11845E5,-1.1162639E-1,3.819175E4,1.09118E5,3.29672E5,-1.1230073E-1,2.052003E4,3.9909E2,-1.1218854E-1,1.09118E5,2.1052866E5,3.049062E5,1.8727599E-1,-9.400185E-2,-1.0872009E-1,-1.1229515E-1,-7.558921E-2,2.3131238E-1,-2.7026135E-2,-1.1210378E-1,7.4920446E-2,-1.1111587E-1,2.0655282E-1,-1.04352795E-1,2.651712E-1,-1.0972728E-1,2.7350357E-1,3.992057E-1],"split_indices":[1,0,2,10,10,0,0,1,5,1,5,1,2,4,1,7,2,0,0,7,2,0,3,3,0,4,0,0,2,0,3,0,2,0,3,0,0,2,2,0,0,1,3,0,0,0,3,0,0,0,0,0,0,2,2,2,0,4,1,2,0,1,3,0,1,1,2,0,0,0,0,0,0,0,0,0,0,0,0,0,0,0,0],"split_type":[0,0,0,0,0,0,0,0,0,0,0,0,0,0,0,0,0,0,0,0,0,0,0,0,0,0,0,0,0,0,0,0,0,0,0,0,0,0,0,0,0,0,0,0,0,0,0,0,0,0,0,0,0,0,0,0,0,0,0,0,0,0,0,0,0,0,0,0,0,0,0,0,0,0,0,0,0,0,0,0,0,0,0],"sum_hessian":[1.009047E5,1.0002441E5,8.802922E2,9.359053E4,6.433874E3,6.332188E2,2.4707336E2,8.618823E4,7.4023066E3,5.7122974E3,7.215769E2,8.611812E4,7.010611E1,2.7950305E2,7.1228037E3,5.6398066E3,7.2490776E1,2.092493E2,5.123276E2,8.6075375E4,4.2747597E1,1.5098643E1,5.5007465E1,2.649076E2,1.4595449E1,4.7964945E0,7.1180073E3,3.6216592E3,2.0181475E3,7.951376E0,6.45394E1,5.2726984E4,3.3348387E4,2.7528894E1,1.52187E1,4.992403E1,5.083437E0,2.6020956E2,4.6980386E0,1.0397779E0,3.7567167E0,1.7235187E3,2.9462885E2,6.2243347E1,2.2960525E0,2.9974068E4,3.3743188E3,8.590984E0,6.627716E0,1.5358629E0,2.586737E2,3.5965827E0,1.1014562E0,6.770584E2,1.0464602E3,1.5053548E2,1.4409338E2,3.1510826E1,2.9942557E4,1.0737206E3,2.3005984E3,4.7546356E2,2.0159482E2,1.0311857E3,1.5274623E1,8.449036E1,6.604512E1,4.9618783E0,2.6548948E1,1.1362263E4,1.8580295E4,9.84865E2,8.8855515E1,1.0675275E2,3.6871082E2,1.1639704E2,8.519778E1,2.4455812E0,1.28290415E1,4.621659E1,3.827376E1,2.5840633E1,4.0204487E1],"tree_param":{"num_deleted":"0","num_feature":"11","num_nodes":"83","size_leaf_vector":"1"}},{"base_weights":[-1.0442802E0,-1.057255E0,3.1475908E-1,-1.0787935E0,-7.502257E-1,-1.1088701E-1,3.086175E0,-1.0928352E0,-9.1679263E-1,-9.016162E-1,3.6276746E-1,1.3111346E0,3.096155E-1,-1.096085E0,2.1235871E0,2.829831E0,-1.1074237E0,-9.5919055E-1,2.6229362E0,3.0939236E0,-1.1088639E-1,1.7615879E-1,1.8674515E-2,-1.0966555E0,-1.8274646E-2,-1.0376828E-1,2.8032727E0,2.9960637E0,-1.0352303E-1,-5.6352043E-1,-1.1077192E-1,-1.1104184E-1,-6.9541657E-1,-9.790239E-2,2.9742033E0,3.1057438E-1,1.8864322E-2,-1.11072354E-1,-1.0744381E0,-1.0691849E-1,1.5611774E0,3.1044555E-1,-9.202302E-2,3.0485668E0,-5.5510443E-1,3.7590872E-2,-8.7044366E-2,-9.128718E-1,4.573787E-1,3.0904633E-1,-7.635491E-2,-1.0935024E0,-8.924408E-1,3.0069783E-1,-9.57556E-2,3.5876546E-2,3.0565116E0,-8.672731E-2,4.1156705E-2,-6.500671E-1,-1.1095978E-1,1.6678919E0,-1.1025553E-1,-4.0004805E-1,-1.0942544E0,-3.9469743E-1,-1.1097222E-1,2.254871E0,3.0893865E-1,-9.1493803E-1,-4.3094095E-2,4.7434822E-1,2.4800334E0,1.6451141E-1,-9.168836E-2,-1.10352114E-1,-1.050443E-1,-6.8457E-2,1.775258E-1,2.561264E-1,1.2509426E-1,-2.6464079E-2,-1.1079978E-1,5.8539223E-2,-1.0979489E-1,2.8214395E-1,-9.522684E-2,4.0637007E-1,2.1730967E-1],"categories":[],"categories_nodes":[],"categories_segments":[],"categories_sizes":[],"default_left":[0,0,0,0,0,0,0,0,0,0,0,0,0,0,0,0,0,0,0,0,0,0,0,0,0,0,0,0,0,0,0,0,0,0,0,0,0,0,0,0,0,0,0,0,0,0,0,0,0,0,0,0,0,0,0,0,0,0,0,0,0,0,0,0,0,0,0,0,0,0,0,0,0,0,0,0,0,0,0,0,0,0,0,0,0,0,0,0,0],"id":2,"left_children":[1,3,5,7,9,-1,11,13,15,17,19,21,-1,23,25,27,29,31,33,35,-1,-1,-1,37,39,-1,41,43,-1,45,-1,-1,47,-1,49,-1,-1,-1,51,-1,53,-1,-1,55,57,-1,-1,59,61,-1,-1,63,65,-1,-1,-1,67,-1,-1,69,-1,71,-1,73,75,77,-1,79,-1,81,83,85,87,-1,-1,-1,-1,-1,-1,-1,-1,-1,-1,-1,-1,-1,-1,-1,-1],"loss_changes":[1.6352188E3,6.0652344E2,3.4658237E3,1.9420312E2,1.01528125E3,0E0,1.2209473E0,8.2771875E2,4.896394E3,1.0785488E3,2.9051125E3,1.3936076E0,0E0,4.8492188E1,1.7489478E2,2.1640967E2,4.2333984E-1,2.073794E2,1.110849E2,8.104248E0,0E0,0E0,0E0,2.3445312E1,7.264533E1,0E0,7.7039856E1,6.108716E1,0E0,1.9350836E0,0E0,0E0,4.7776074E2,0E0,3.63183E1,0E0,0E0,0E0,1.0519531E2,0E0,6.657258E1,0E0,0E0,5.6152344E0,2.0127864E0,0E0,0E0,8.211987E1,5.737267E2,0E0,0E0,1.4003906E1,3.1393408E2,0E0,0E0,0E0,1.282959E0,0E0,0E0,1.1063019E2,0E0,1.6450497E2,0E0,3.488076E1,1.0074219E1,5.5780817E2,0E0,1.727684E0,0E0,5.9867676E1,1.3998494E2,2.3857181E2,4.049579E1,0E0,0E0,0E0,0E0,0E0,0E0,0E0,0E0,0E0,0E0,0E0,0E0,0E0,0E0,0E0,0E0],"parents":[2147483647,0,0,1,1,2,2,3,3,4,4,6,6,7,7,8,8,9,9,10,10,11,11,13,13,14,14,15,15,16,16,17,17,18,18,19,19,23,23,24,24,26,26,27,27,29,29,32,32,34,34,38,38,40,40,43,43,44,44,47,47,48,48,51,51,52,52,56,56,59,59,61,61,63,63,64,64,65,65,67,67,69,69,70,70,71,71,72,72],"right_children":[2,4,6,8,10,-1,12,14,16,18,20,22,-1,24,26,28,30,32,34,36,-1,-1,-1,38,40,-1,42,44,-1,46,-1,-1,48,-1,50,-1,-1,-1,52,-1,54,-1,-1,56,58,-1,-1,60,62,-1,-1,64,66,-1,-1,-1,68,-1,-1,70,-1,72,-1,74,76,78,-1,80,-1,82,84,86,88,-1,-1,-1,-1,-1,-1,-1,-1,-1,-1,-1,-1,-1,-1,-1,-1],"split_conditions":[2.039512E6,4.07E2,1.3039886E6,1E0,1E0,-1.1088701E-1,1.2E1,8.441167E5,4.73791E3,6.282749E5,4.73791E3,2.11433E3,3.096155E-1,7.513217E5,6.238168E5,2.11433E3,5.2883E2,1E0,6.238168E5,3.9909E2,-1.1088639E-1,1.7615879E-1,1.8674515E-2,1E0,7.31114E5,-1.0376828E-1,3.9909E2,3.9909E2,-1.0352303E-1,1.31E2,-1.1077192E-1,-1.1104184E-1,1.101E5,-9.790239E-2,3.9909E2,3.1057438E-1,1.8864322E-2,-1.11072354E-1,1.2417671E5,-1.0691849E-1,3.9909E2,3.1044555E-1,-9.202302E-2,1.57E2,1.0088724E5,3.7590872E-2,-8.7044366E-2,1.09118E5,3.9909E2,3.0904633E-1,-7.635491E-2,8E0,3.9909E2,3.0069783E-1,-9.57556E-2,3.5876546E-2,2E1,-8.672731E-2,4.1156705E-2,2.1639E4,-1.1095978E-1,1.7076488E5,-1.1025553E-1,3.819175E4,3.1202E4,3.29672E5,-1.1097222E-1,2.6330084E5,3.0893865E-1,2.160751E4,3.9909E2,1.6189742E5,2.2163522E5,1.6451141E-1,-9.168836E-2,-1.10352114E-1,-1.050443E-1,-6.8457E-2,1.775258E-1,2.561264E-1,1.2509426E-1,-2.6464079E-2,-1.1079978E-1,5.8539223E-2,-1.0979489E-1,2.8214395E-1,-9.522684E-2,4.0637007E-1,2.1730967E-1],"split_indices":[1,0,2,10,10,0,0,1,5,1,5,4,0,1,2,4,1,7,2,3,0,0,0,7,2,0,3,3,0,0,0,0,2,0,3,0,0,0,2,0,3,0,0,2,2,0,0,1,3,0,0,0,3,0,0,0,0,0,0,2,0,2,0,4,2,2,0,1,0,1,3,1,1,0,0,0,0,0,0,0,0,0,0,0,0,0,0,0,0],"split_type":[0,0,0,0,0,0,0,0,0,0,0,0,0,0,0,0,0,0,0,0,0,0,0,0,0,0,0,0,0,0,0,0,0,0,0,0,0,0,0,0,0,0,0,0,0,0,0,0,0,0,0,0,0,0,0,0,0,0,0,0,0,0,0,0,0,0,0,0,0,0,0,0,0,0,0,0,0,0,0,0,0,0,0,0,0,0,0,0,0],"sum_hessian":[9.271468E4,9.183812E4,8.765641E2,8.581552E4,6.022591E3,5.7948987E2,2.9707422E2,7.896536E4,6.850169E3,5.3016455E3,7.209453E2,2.4010408E0,2.946732E2,7.888631E4,7.904295E1,3.30996E2,6.519173E3,5.21715E3,8.449546E1,2.5205733E2,4.6888797E2,1.3096585E0,1.0913821E0,7.8844555E4,4.176026E1,1.3894031E1,6.514892E1,3.175627E2,1.3433271E1,4.5764627E0,6.5145967E3,3.3139668E3,1.9031833E3,7.3491144E0,7.714635E1,2.5096727E2,1.0900546E0,4.824622E4,3.0598336E4,2.526975E1,1.6490513E1,6.0427387E1,4.721534E0,3.1307553E2,4.48721E0,1.0716369E0,3.5048258E0,1.6013281E3,3.018552E2,7.498711E1,2.1592405E0,2.769253E4,2.9058052E3,1.03535385E1,6.1369734E0,1.0579379E0,3.1201758E2,3.469594E0,1.0176158E0,6.873746E2,9.1395355E2,1.6992427E2,1.3193092E2,3.0572372E1,2.7661957E4,8.8387067E2,2.0219344E3,1.5032944E1,2.9698465E2,4.781932E2,2.0918137E2,6.9447105E1,1.0047716E2,5.727019E0,2.4845354E1,2.2812543E4,4.849415E3,7.803169E2,1.03553764E2,1.0329268E1,4.703676E0,1.1000986E2,3.6818335E2,1.3136104E2,7.7820335E1,2.5884243E1,4.3562862E1,1.4325245E1,8.615192E1],"tree_param":{"num_deleted":"0","num_feature":"11","num_nodes":"89","size_leaf_vector":"1"}},{"base_weights":[-1.0297844E0,-1.043101E0,2.826074E-1,-1.0654892E0,-7.2974575E-1,-1.0970848E-1,2.5313812E-1,-1.0799364E0,-9.0011996E-1,-8.810889E-1,3.2580918E-1,-1.0832918E0,1.7998729E0,2.3355248E0,-1.0954933E0,-9.425078E-1,2.0384042E0,2.5346327E0,-1.09700434E-1,-1.083884E0,-2.2038814E-2,-1.0213599E-1,2.3168921E0,2.4576077E0,-1.0187997E-1,-5.3764015E-1,-1.0958126E0,-1.0987498E-1,-6.771478E-1,-1.0104048E-1,2.4189792E0,2.5433722E-1,1.7814972E-2,-1.09907925E-1,-1.0599582E0,-1.0546833E-1,1.3579499E0,2.539837E-1,-8.998342E-2,2.4964137E0,-5.292286E-1,3.9765164E-2,-8.552008E-2,-1.0963104E-1,-7.893937E-1,-9.5600486E-1,1.402095E-1,2.5447202E-1,-8.3763994E-2,-1.0812808E0,-8.7582695E-1,2.483413E-1,-9.381106E-2,3.358727E-2,2.5022705E0,-8.513268E-2,3.7949882E-2,4.524303E-2,-1.0043488E-1,-4.729949E-1,-1.10235766E-1,8.213411E-1,-1.0930139E-1,-4.017213E-1,-1.0820539E0,-4.434507E-1,-1.09806456E-1,2.0066404E0,2.5400794E-1,-9.901808E-1,5.8335725E-2,1.317948E-1,1.918458E0,1.5008771E-1,-9.117284E-2,-1.0558509E-1,-1.09805524E-1,-6.761252E-2,1.5615353E-1,2.4636479E-1,-1.18969075E-1,1.899689E-1,-1.1033509E-1,5.5982627E-2,-1.0856389E-1,1.5164791E-1,-1.1024894E-1,1.3615672E-1,2.4181238E-1],"categories":[],"categories_nodes":[],"categories_segments":[],"categories_sizes":[],"default_left":[0,0,0,0,0,0,0,0,0,0,0,0,0,0,0,0,0,0,0,0,0,0,0,0,0,0,0,0,0,0,0,0,0,0,0,0,0,0,0,0,0,0,0,0,0,0,0,0,0,0,0,0,0,0,0,0,0,0,0,0,0,0,0,0,0,0,0,0,0,0,0,0,0,0,0,0,0,0,0,0,0,0,0,0,0,0,0,0,0],"id":3,"left_children":[1,3,5,7,9,-1,-1,11,13,15,17,19,21,23,25,27,29,31,-1,33,35,-1,37,39,-1,41,43,-1,45,-1,47,-1,-1,-1,49,-1,51,-1,-1,53,55,-1,-1,-1,57,59,61,-1,-1,63,65,-1,-1,-1,67,-1,-1,-1,-1,69,-1,71,-1,73,75,77,-1,79,-1,81,83,85,87,-1,-1,-1,-1,-1,-1,-1,-1,-1,-1,-1,-1,-1,-1,-1,-1],"loss_changes":[1.4867891E3,5.8996094E2,2.6560488E3,1.8678125E2,8.977798E2,0E0,0E0,7.0025E2,3.9978027E3,8.830322E2,2.2191296E3,4.534375E1,1.2558844E2,1.5000854E2,4.736328E-1,1.988169E2,1.2028577E2,5.243286E0,0E0,2.5070312E1,6.026297E1,0E0,5.3705322E1,4.1638916E1,0E0,1.9357983E0,4.248047E-2,0E0,4.0729297E2,0E0,3.922534E1,0E0,0E0,0E0,1.0917969E2,0E0,4.912109E1,0E0,0E0,3.5065918E0,1.8704147E0,0E0,0E0,0E0,3.9865017E0,9.364258E1,3.8333655E2,0E0,0E0,1.2769531E1,2.797461E2,0E0,0E0,0E0,1.3208008E0,0E0,0E0,0E0,0E0,8.566072E1,0E0,2.2206248E2,0E0,3.0626606E1,9.365234E0,4.6372156E2,0E0,4.534443E1,0E0,5.3741165E1,8.930063E1,3.119176E2,2.8246033E1,0E0,0E0,0E0,0E0,0E0,0E0,0E0,0E0,0E0,0E0,0E0,0E0,0E0,0E0,0E0,0E0],"parents":[2147483647,0,0,1,1,2,2,3,3,4,4,7,7,8,8,9,9,10,10,11,11,12,12,13,13,14,14,15,15,16,16,17,17,19,19,20,20,22,22,23,23,25,25,26,26,28,28,30,30,34,34,36,36,39,39,40,40,44,44,45,45,46,46,49,49,50,50,54,54,59,59,61,61,63,63,64,64,65,65,67,67,69,69,70,70,71,71,72,72],"right_children":[2,4,6,8,10,-1,-1,12,14,16,18,20,22,24,26,28,30,32,-1,34,36,-1,38,40,-1,42,44,-1,46,-1,48,-1,-1,-1,50,-1,52,-1,-1,54,56,-1,-1,-1,58,60,62,-1,-1,64,66,-1,-1,-1,68,-1,-1,-1,-1,70,-1,72,-1,74,76,78,-1,80,-1,82,84,86,88,-1,-1,-1,-1,-1,-1,-1,-1,-1,-1,-1,-1,-1,-1,-1,-1],"split_conditions":[2.039512E6,4.07E2,1.3039886E6,1E0,1E0,-1.0970848E-1,2.5313812E-1,8.441167E5,4.73791E3,5.865683E5,4.73791E3,7.513217E5,6.238168E5,2.11433E3,5.2883E2,1E0,5.1220306E5,3.9909E2,-1.09700434E-1,1E0,7.31114E5,-1.0213599E-1,3.9909E2,3.9909E2,-1.0187997E-1,9.289553E4,9.482039E5,-1.0987498E-1,5.5987E4,-1.0104048E-1,3.9909E2,2.5433722E-1,1.7814972E-2,-1.09907925E-1,1.13631E5,-1.0546833E-1,3.9909E2,2.539837E-1,-8.998342E-2,1.57E2,4.20664E3,3.9765164E-2,-8.552008E-2,-1.0963104E-1,2.11433E3,5.612198E4,3.9909E2,2.5447202E-1,-8.3763994E-2,8E0,3.9909E2,2.483413E-1,-9.381106E-2,3.358727E-2,2.0214E4,-8.513268E-2,3.7949882E-2,4.524303E-2,-1.0043488E-1,1.481E3,-1.10235766E-1,1.6450398E5,-1.0930139E-1,3.575091E4,1.09118E5,3.45139E5,-1.09806456E-1,2.052003E4,2.5400794E-1,1.21411E3,3.9909E2,1.6189742E5,2.73178E5,1.5008771E-1,-9.117284E-2,-1.0558509E-1,-1.09805524E-1,-6.761252E-2,1.5615353E-1,2.4636479E-1,-1.18969075E-1,1.899689E-1,-1.1033509E-1,5.5982627E-2,-1.0856389E-1,1.5164791E-1,-1.1024894E-1,1.3615672E-1,2.4181238E-1],"split_indices":[1,0,2,10,10,0,0,1,5,1,5,1,2,4,1,7,2,3,0,7,2,0,3,3,0,4,2,0,2,0,3,0,0,0,2,0,3,0,0,2,1,0,0,0,4,1,3,0,0,0,3,0,0,0,2,0,0,0,0,2,0,2,0,1,1,2,0,1,0,1,3,1,2,0,0,0,0,0,0,0,0,0,0,0,0,0,0,0,0],"split_type":[0,0,0,0,0,0,0,0,0,0,0,0,0,0,0,0,0,0,0,0,0,0,0,0,0,0,0,0,0,0,0,0,0,0,0,0,0,0,0,0,0,0,0,0,0,0,0,0,0,0,0,0,0,0,0,0,0,0,0,0,0,0,0,0,0,0,0,0,0,0,0,0,0,0,0,0,0,0,0,0,0,0,0,0,0,0,0,0,0],"sum_hessian":[8.505659E4,8.420242E4,8.541726E2,7.858534E4,5.6170713E3,5.2969836E2,3.2447418E2,7.226634E4,6.3190015E3,4.9128438E3,7.042275E2,7.218287E4,8.347786E1,3.5920084E2,5.959801E3,4.8122827E3,1.0056134E2,2.7559818E2,4.286293E2,7.2142586E4,4.0283653E1,1.2777738E1,7.070012E1,3.4684448E2,1.2356327E1,4.3726E0,5.955428E3,3.026917E3,1.7853656E3,1.0976104E1,8.9585236E1,2.7450082E2,1.0973499E0,4.409379E4,2.8048793E4,2.3176456E1,1.7107195E1,6.631443E1,4.3856897E0,3.4255804E2,4.2864375E0,1.0443966E0,3.3282034E0,5.9431963E3,1.2232008E1,1.3310745E3,4.542911E2,8.646533E1,3.119905E0,2.5133443E4,2.9153506E3,1.14252615E1,5.681934E0,1.0838203E0,3.4147424E2,3.2113438E0,1.0750939E0,1.6418803E0,1.0590128E1,3.1051373E2,1.0205608E3,2.9286853E2,1.614226E2,2.915258E1,2.5104291E4,9.9076135E2,1.9245891E3,2.8035463E1,3.1343878E2,1.569137E2,1.5360004E2,1.8052641E2,1.123421E2,5.7519345E0,2.3400644E1,9.543439E3,1.5560852E4,8.883347E2,1.0242666E2,2.4728973E1,3.3064895E0,5.318415E0,1.5159529E2,1.07142166E2,4.645788E1,8.497189E1,9.555452E1,5.489033E1,5.7451775E1],"tree_param":{"num_deleted":"0","num_feature":"11","num_nodes":"89","size_leaf_vector":"1"}},{"base_weights":[-1.0167162E0,-1.0303069E0,2.594299E-1,-1.0534939E0,-7.1118605E-1,-1.0866065E-1,2.1868243E0,-1.068262E0,-8.855474E-1,-8.619027E-1,2.99398E-1,9.7391003E-1,2.1934822E-1,-1.0717056E0,1.5863385E0,2.0230105E0,-1.084855E0,-9.2369395E-1,1.7849065E0,2.1890721E0,-1.08645156E-1,1.4086537E-1,3.7027323E-3,-1.0727297E0,-4.2453045E-1,-1.0058262E-1,2.0099032E0,2.1207573E0,-1.00314595E-1,-5.123941E-1,-1.085201E0,-1.0884058E-1,-6.523939E-1,-9.942035E-2,2.094093E0,2.1962719E-1,1.6825637E-2,-1.0887619E-1,-1.0475316E0,-1.0843604E-1,9.563237E-1,2.1902207E-1,-8.800029E-2,2.1522894E0,-5.041749E-1,3.717906E-2,-8.3446324E-2,-1.0857397E-1,-7.631207E-1,-9.351025E-1,1.2220281E-1,2.1961935E-1,-8.171659E-2,-1.0693449E0,-8.6168605E-1,2.5498852E-1,-1.0233543E-1,3.1451613E-2,2.1571167E0,-8.314371E-2,4.036914E-2,4.2290784E-2,-9.9011116E-2,-4.159521E-1,-1.0829891E0,7.11674E-1,-1.0821211E-1,-3.7450534E-1,-1.0701786E0,-4.3902376E-1,-1.0876552E-1,1.7388585E0,2.1889973E-1,-9.8610425E-1,9.609085E-2,-1.0900252E0,-4.6627292E-1,6.390926E-2,1.5606368E0,1.2547153E-1,-8.860374E-2,-1.0802628E-1,-1.0203101E-1,-6.7238964E-2,1.0926273E-1,2.1198621E-1,-1.13315284E-1,2.9563174E-1,-1.0770196E-1,5.8977704E-2,-1.0729771E-1,-4.1715425E-2,-1.0910012E-1,2.3301898E-1,-1.00585476E-1,1.2857436E-1,-1.09408796E-1,2.728608E-1,1.328082E-1],"categories":[],"categories_nodes":[],"categories_segments":[],"categories_sizes":[],"default_left":[0,0,0,0,0,0,0,0,0,0,0,0,0,0,0,0,0,0,0,0,0,0,0,0,0,0,0,0,0,0,0,0,0,0,0,0,0,0,0,0,0,0,0,0,0,0,0,0,0,0,0,0,0,0,0,0,0,0,0,0,0,0,0,0,0,0,0,0,0,0,0,0,0,0,0,0,0,0,0,0,0,0,0,0,0,0,0,0,0,0,0,0,0,0,0,0,0,0,0],"id":4,"left_children":[1,3,5,7,9,-1,11,13,15,17,19,21,-1,23,25,27,29,31,33,35,-1,-1,-1,37,39,-1,41,43,-1,45,47,-1,49,-1,51,-1,-1,-1,53,-1,55,-1,-1,57,59,-1,-1,-1,61,63,65,-1,-1,67,69,-1,-1,-1,71,-1,-1,-1,-1,73,75,77,-1,79,81,83,-1,85,-1,87,89,91,93,95,97,-1,-1,-1,-1,-1,-1,-1,-1,-1,-1,-1,-1,-1,-1,-1,-1,-1,-1,-1,-1],"loss_changes":[1.3519375E3,5.6985156E2,2.135032E3,1.7735156E2,7.963269E2,0E0,5.961914E-1,6.0571875E2,3.3738848E3,7.455564E2,1.7807042E3,1.4327662E0,0E0,4.3265625E1,9.645021E1,1.12562744E2,5.229492E-1,1.9793872E2,9.153659E1,3.8154297E0,0E0,0E0,0E0,2.5484375E1,9.753308E1,0E0,4.0623566E1,3.104663E1,0E0,1.786135E0,1.15722656E-1,0E0,3.684107E2,0E0,2.9736847E1,0E0,0E0,0E0,1.0303906E2,0E0,1.1231703E2,0E0,0E0,2.49646E0,1.8529837E0,0E0,0E0,0E0,3.770245E0,9.4156006E1,3.206454E2,0E0,0E0,1.2896484E1,2.572987E2,0E0,0E0,0E0,9.5080566E-1,0E0,0E0,0E0,0E0,8.032687E1,3.6506348E0,1.6659288E2,0E0,2.5313137E1,1.0421875E1,3.374182E2,0E0,3.5372757E1,0E0,4.9822945E1,8.472421E1,1.6662598E-1,2.129414E1,2.4614507E2,3.1996765E1,0E0,0E0,0E0,0E0,0E0,0E0,0E0,0E0,0E0,0E0,0E0,0E0,0E0,0E0,0E0,0E0,0E0,0E0,0E0,0E0],"parents":[2147483647,0,0,1,1,2,2,3,3,4,4,6,6,7,7,8,8,9,9,10,10,11,11,13,13,14,14,15,15,16,16,17,17,18,18,19,19,23,23,24,24,26,26,27,27,29,29,30,30,32,32,34,34,38,38,40,40,43,43,44,44,48,48,49,49,50,50,53,53,54,54,58,58,63,63,64,64,65,65,67,67,68,68,69,69,71,71,73,73,74,74,75,75,76,76,77,77,78,78],"right_children":[2,4,6,8,10,-1,12,14,16,18,20,22,-1,24,26,28,30,32,34,36,-1,-1,-1,38,40,-1,42,44,-1,46,48,-1,50,-1,52,-1,-1,-1,54,-1,56,-1,-1,58,60,-1,-1,-1,62,64,66,-1,-1,68,70,-1,-1,-1,72,-1,-1,-1,-1,74,76,78,-1,80,82,84,-1,86,-1,88,90,92,94,96,98,-1,-1,-1,-1,-1,-1,-1,-1,-1,-1,-1,-1,-1,-1,-1,-1,-1,-1,-1,-1],"split_conditions":[2.039512E6,4.07E2,1.3039886E6,1E0,1E0,-1.0866065E-1,1.2E1,8.441167E5,4.73791E3,5.865683E5,4.73791E3,2.11433E3,2.1934822E-1,6.7981594E5,6.238168E5,2.11433E3,5.2883E2,1E0,5.1220306E5,3.9909E2,-1.08645156E-1,1.4086537E-1,3.7027323E-3,1E0,6.755834E5,-1.0058262E-1,3.9909E2,3.9909E2,-1.00314595E-1,1.31E2,9.482039E5,-1.0884058E-1,5.5987E4,-9.942035E-2,3.9909E2,2.1962719E-1,1.6825637E-2,-1.0887619E-1,1.13631E5,-1.0843604E-1,3.9909E2,2.1902207E-1,-8.800029E-2,1.57E2,1.0088724E5,3.717906E-2,-8.3446324E-2,-1.0857397E-1,3.9909E2,5.150478E4,3.9909E2,2.1961935E-1,-8.171659E-2,8E0,3.9909E2,2.5498852E-1,-1.0233543E-1,3.1451613E-2,2.0214E4,-8.314371E-2,4.036914E-2,4.2290784E-2,-9.9011116E-2,7.45E2,5.2484E4,1.54942E5,-1.0821211E-1,3.575091E4,3.1202E4,3.1533375E5,-1.0876552E-1,2.052003E4,2.1889973E-1,3.4877E2,3.9909E2,5.431915E4,5.612198E4,1.5322219E5,2.0515608E5,1.2547153E-1,-8.860374E-2,-1.0802628E-1,-1.0203101E-1,-6.7238964E-2,1.0926273E-1,2.1198621E-1,-1.13315284E-1,2.9563174E-1,-1.0770196E-1,5.8977704E-2,-1.0729771E-1,-4.1715425E-2,-1.0910012E-1,2.3301898E-1,-1.00585476E-1,1.2857436E-1,-1.09408796E-1,2.728608E-1,1.328082E-1],"split_indices":[1,0,2,10,10,0,0,1,5,1,5,4,0,1,2,4,1,7,2,3,0,0,0,7,2,0,3,3,0,0,2,0,2,0,3,0,0,0,2,0,3,0,0,2,2,0,0,0,3,1,3,0,0,0,3,0,0,0,2,0,0,0,0,2,2,2,0,1,2,2,0,1,0,1,3,5,1,1,1,0,0,0,0,0,0,0,0,0,0,0,0,0,0,0,0,0,0,0,0],"split_type":[0,0,0,0,0,0,0,0,0,0,0,0,0,0,0,0,0,0,0,0,0,0,0,0,0,0,0,0,0,0,0,0,0,0,0,0,0,0,0,0,0,0,0,0,0,0,0,0,0,0,0,0,0,0,0,0,0,0,0,0,0,0,0,0,0,0,0,0,0,0,0,0,0,0,0,0,0,0,0,0,0,0,0,0,0,0,0,0,0,0,0,0,0,0,0,0,0,0,0],"sum_hessian":[7.793397E4,7.711293E4,8.2104083E2,7.188736E4,5.2255723E3,4.8368527E2,3.373556E2,6.607207E4,5.8152915E3,4.5475117E3,6.7806036E2,2.6457438E0,3.3470984E2,6.598706E4,8.500448E1,3.7234818E2,5.4429434E3,4.444406E3,1.0310617E2,2.8663705E2,3.914233E2,1.4632126E0,1.1825312E0,6.588216E4,1.04908264E2,1.1745957E1,7.3258514E1,3.6098724E2,1.1360919E1,4.182768E0,5.4387603E3,2.7635728E3,1.6808329E3,1.0100719E1,9.300545E1,2.8553293E2,1.1041257E0,4.023838E4,2.5643775E4,7.113277E1,3.3775497E1,6.918386E1,4.0746546E0,3.5688028E2,4.1069903E0,1.0755773E0,3.1071906E0,5.427311E3,1.1449128E1,1.2312499E3,4.4958298E2,9.0091484E1,2.9139662E0,2.2945795E4,2.6979802E3,1.8553026E1,1.5222471E1,1.1082729E0,3.55772E2,3.0806732E0,1.0263171E0,1.7005618E0,9.748567E0,2.7382172E2,9.5742816E2,3.021171E2,1.4746588E2,2.8039423E1,2.2917754E4,9.4094324E2,1.757037E3,2.9130894E1,3.266411E2,1.2912129E2,1.4470044E2,9.458693E2,1.1558854E1,1.7197456E2,1.3014255E2,6.3528495E0,2.1686573E1,1.9045762E4,3.8719924E3,8.17021E2,1.2392219E2,2.5950205E1,3.180688E0,2.20009E0,1.26921196E2,1.0208601E2,4.261443E1,1.9904256E0,9.438789E2,1.3328178E0,1.0226037E1,8.362706E1,8.8347496E1,1.9827715E1,1.10314835E2],"tree_param":{"num_deleted":"0","num_feature":"11","num_nodes":"99","size_leaf_vector":"1"}},{"base_weights":[-1.004831E0,-1.0307548E0,-3.2992378E-1,-1.0509758E0,-7.2966784E-1,-1.0782585E-1,1.8779638E0,-1.0617679E0,-8.9341426E-1,1.851326E0,-1.075564E0,1.9352402E-1,1.02949E0,-1.07960045E-1,-1.0338824E0,-1.0792257E-1,-6.0095286E-1,1.9036269E0,-9.7402185E-2,-5.1164484E-1,-1.07605316E-1,1.9089726E-1,-1.0347801E-1,-1.0584408E0,-8.288815E-1,-9.154033E-1,1.7666565E-1,1.9282515E0,-4.8804528E-1,4.2247348E-2,-8.348052E-2,-9.738527E-1,-1.0665641E0,-3.9191908E-1,-1.07839085E-1,-4.1886514E-1,-1.0818815E-1,6.9097936E-1,-1.0723294E-1,1.3099128E0,1.9453075E0,-9.2853114E-2,8.054515E-2,4.565109E-1,-9.808586E-1,-1.0427132E0,-1.0788571E-1,-5.384072E-1,2.036619E0,-9.5194167E-1,4.6879932E-2,1.9643867E-1,1.6846292E0,1.6051279E-1,-6.669549E-3,5.8624458E-2,1.9473363E-1,-9.150737E-2,1.458278E0,-1.0263742E0,-8.536833E-1,-1.0642815E0,-9.08786E-1,2.9058485E0,-5.8720094E-1,9.417218E-1,2.5294528E0,1.418439E0,-1.08118534E-1,4.269317E-1,-1.0607972E-1,2.5035853E0,-1.3292871E-1,1.2090981E0,2.0100467E-1,-9.882023E-2,1.2057429E-1,2.2354816E-1,-3.5023864E-2,-9.1795936E-2,-1.06702186E-1,-5.6020387E-2,-1.0778146E-1,-4.2977046E-2,-1.0656685E-1,-7.2617956E-2,-1.079429E-1,4.107576E-1,1.0375344E-1,-8.0861345E-2,1.0640941E-2,1.979617E-1,-1.2058538E-1,-3.5854638E-2,2.646131E-1,1.9389577E-1,-6.403979E-2,3.595075E-1,1.5640927E-2,1.583428E-1,3.4809142E-1,3.5584934E-2,-1.1027241E-1,1.9179119E-1,-1.22341655E-1],"categories":[],"categories_nodes":[],"categories_segments":[],"categories_sizes":[],"default_left":[0,0,0,0,0,0,0,0,0,0,0,0,0,0,0,0,0,0,0,0,0,0,0,0,0,0,0,0,0,0,0,0,0,0,0,0,0,0,0,0,0,0,0,0,0,0,0,0,0,0,0,0,0,0,0,0,0,0,0,0,0,0,0,0,0,0,0,0,0,0,0,0,0,0,0,0,0,0,0,0,0,0,0,0,0,0,0,0,0,0,0,0,0,0,0,0,0,0,0,0,0,0,0,0,0],"id":5,"left_children":[1,3,5,7,9,-1,11,13,15,17,19,-1,21,-1,23,-1,25,27,-1,29,-1,-1,-1,31,33,35,37,39,41,-1,-1,43,45,47,-1,49,-1,51,-1,53,55,-1,-1,57,59,61,-1,63,65,67,69,71,73,-1,75,-1,-1,-1,77,79,81,83,85,87,89,91,93,95,-1,97,-1,99,101,103,-1,-1,-1,-1,-1,-1,-1,-1,-1,-1,-1,-1,-1,-1,-1,-1,-1,-1,-1,-1,-1,-1,-1,-1,-1,-1,-1,-1,-1,-1,-1],"loss_changes":[1.24775E3,4.1747656E2,4.364226E3,1.0850781E2,3.8645415E3,0E0,3.0504639E1,2.8835938E1,2.2393506E2,7.746338E1,5.019531E-1,0E0,8.262401E1,0E0,1.175332E2,0E0,3.9331616E2,3.0547607E1,0E0,1.9262286E0,0E0,0E0,0E0,1.3390625E1,2.7441113E2,9.419934E1,2.9867554E2,2.7017822E0,4.12157E0,0E0,0E0,1.9001709E1,4.4902344E0,3.276051E2,0E0,7.183247E1,0E0,1.614037E2,0E0,6.394247E0,1.8847656E-1,0E0,0E0,1.4671713E1,9.7907715E0,1.7932129E1,0E0,1.4730806E2,2.5904358E1,4.2852806E1,6.58178E1,1.68186E2,1.4474335E1,0E0,5.9564133E0,0E0,0E0,0E0,9.209787E0,4.97937E0,3.1735474E1,4.4970703E0,2.7709167E1,2.3287735E1,1.314083E2,4.220662E1,1.2929977E1,9.178625E0,0E0,9.912885E1,0E0,1.9349304E1,9.246683E1,8.319972E1,0E0,0E0,0E0,0E0,0E0,0E0,0E0,0E0,0E0,0E0,0E0,0E0,0E0,0E0,0E0,0E0,0E0,0E0,0E0,0E0,0E0,0E0,0E0,0E0,0E0,0E0,0E0,0E0,0E0,0E0,0E0],"parents":[2147483647,0,0,1,1,2,2,3,3,4,4,6,6,7,7,8,8,9,9,10,10,12,12,14,14,16,16,17,17,19,19,23,23,24,24,25,25,26,26,27,27,28,28,31,31,32,32,33,33,35,35,37,37,39,39,40,40,43,43,44,44,45,45,47,47,48,48,49,49,50,50,51,51,52,52,54,54,58,58,59,59,60,60,61,61,62,62,63,63,64,64,65,65,66,66,67,67,69,69,71,71,72,72,73,73],"right_children":[2,4,6,8,10,-1,12,14,16,18,20,-1,22,-1,24,-1,26,28,-1,30,-1,-1,-1,32,34,36,38,40,42,-1,-1,44,46,48,-1,50,-1,52,-1,54,56,-1,-1,58,60,62,-1,64,66,68,70,72,74,-1,76,-1,-1,-1,78,80,82,84,86,88,90,92,94,96,-1,98,-1,100,102,104,-1,-1,-1,-1,-1,-1,-1,-1,-1,-1,-1,-1,-1,-1,-1,-1,-1,-1,-1,-1,-1,-1,-1,-1,-1,-1,-1,-1,-1,-1,-1],"split_conditions":[7.513217E5,1E0,7.31114E5,4.07E2,4.73791E3,-1.0782585E-1,3.9909E2,1E0,1E0,2.11433E3,5.2883E2,1.9352402E-1,4.73791E3,-1.07960045E-1,1.13631E5,-1.0792257E-1,5.5987E4,3.9909E2,-9.7402185E-2,4.5E1,-1.07605316E-1,1.9089726E-1,-1.0347801E-1,1.1521196E5,3.9909E2,5.612198E4,3.9909E2,2E1,1.9235277E5,4.2247348E-2,-8.348052E-2,8E0,1.1296602E5,4.6413838E5,-1.07839085E-1,1.481E3,-1.0818815E-1,2.1917231E5,-1.0723294E-1,2.6330084E5,1.77E2,-9.2853114E-2,8.054515E-2,1.57E2,3.2489E4,3.06408E4,-1.0788571E-1,1.2859007E5,5.1220306E5,1.21411E3,3.9909E2,9.413564E4,3.29672E5,1.6051279E-1,2.4604506E5,5.8624458E-2,1.9473363E-1,-9.150737E-2,3.575091E4,2.215323E4,3.9909E2,3.4877E2,3.9909E2,4.8475688E5,2.27754E5,5.280453E5,1.4E1,1.3426362E6,-1.08118534E-1,9.58384E3,-1.0607972E-1,7.116233E4,2.1880989E5,3.2927856E5,2.0100467E-1,-9.882023E-2,1.2057429E-1,2.2354816E-1,-3.5023864E-2,-9.1795936E-2,-1.06702186E-1,-5.6020387E-2,-1.0778146E-1,-4.2977046E-2,-1.0656685E-1,-7.2617956E-2,-1.079429E-1,4.107576E-1,1.0375344E-1,-8.0861345E-2,1.0640941E-2,1.979617E-1,-1.2058538E-1,-3.5854638E-2,2.646131E-1,1.9389577E-1,-6.403979E-2,3.595075E-1,1.5640927E-2,1.583428E-1,3.4809142E-1,3.5584934E-2,-1.1027241E-1,1.9179119E-1,-1.22341655E-1],"split_indices":[1,10,2,0,5,0,3,7,7,4,1,0,5,0,2,0,2,3,0,0,0,0,0,5,3,1,3,0,2,0,0,0,1,2,0,2,0,2,0,1,2,0,0,2,2,2,0,1,2,1,3,1,2,0,2,0,0,0,1,1,3,1,3,5,2,1,0,4,0,1,0,2,1,1,0,0,0,0,0,0,0,0,0,0,0,0,0,0,0,0,0,0,0,0,0,0,0,0,0,0,0,0,0,0,0],"split_type":[0,0,0,0,0,0,0,0,0,0,0,0,0,0,0,0,0,0,0,0,0,0,0,0,0,0,0,0,0,0,0,0,0,0,0,0,0,0,0,0,0,0,0,0,0,0,0,0,0,0,0,0,0,0,0,0,0,0,0,0,0,0,0,0,0,0,0,0,0,0,0,0,0,0,0,0,0,0,0,0,0,0,0,0,0,0,0,0,0,0,0,0,0,0,0,0,0,0,0,0,0,0,0,0,0],"sum_hessian":[7.13344E4,6.869523E4,2.6391755E3,6.4369676E4,4.3255464E3,1.9714799E3,6.6769574E2,6.023794E4,4.131737E3,5.1067334E2,3.814873E3,6.2427325E2,4.3422535E1,3.6718875E4,2.3519064E4,2.5248914E3,1.6068455E3,5.0171222E2,8.96114E0,4.2126603E0,3.8106604E3,3.050227E1,1.2920265E1,2.099926E4,2.5198052E3,1.144044E3,4.6280145E2,4.9679105E2,4.9211636E0,1.0037961E0,3.2088642E0,1.850504E3,1.9148756E4,9.1679846E2,1.6030067E3,2.8814328E2,8.559007E2,3.2813013E2,1.3467133E2,1.5423861E1,4.813672E2,3.8815124E0,1.039651E0,8.706843E0,1.8417971E3,6.541942E3,1.2606813E4,8.653776E2,5.1420815E1,1.3387286E2,1.5427042E2,2.1988885E2,1.0824126E2,1.2419823E1,3.0040386E0,1.1497382E0,4.8021744E2,3.711596E0,4.995248E0,1.3511536E3,4.906436E2,5.6285464E3,9.133957E2,1.1270365E1,8.5410724E2,1.6864618E1,3.4556194E1,6.406173E0,1.274667E2,1.1531843E2,3.895199E1,2.6645031E1,1.9324382E2,4.589324E1,6.234802E1,1.7622792E0,1.2417593E0,3.3286755E0,1.6665722E0,3.7487515E2,9.762784E2,2.1396951E2,2.7667407E2,1.2955432E1,5.615591E3,4.4376962E2,4.6962607E2,6.1293373E0,5.141027E0,6.473091E2,2.0679817E2,1.1422488E1,5.442131E0,1.2613924E0,3.3294804E1,5.159872E0,1.2463012E0,8.105373E0,1.0721305E2,1.5073475E1,1.1571556E1,1.2890741E2,6.433642E1,3.5701645E1,1.0191599E1],"tree_param":{"num_deleted":"0","num_feature":"11","num_nodes":"105","size_leaf_vector":"1"}},{"base_weights":[-9.939487E-1,-1.0202242E0,-3.225396E-1,-1.040697E0,-7.1776146E-1,-1.06995456E-1,1.7096946E0,-1.0521108E0,-8.759291E-1,1.6886792E0,-1.0670303E0,1.7592046E0,9.57529E-1,-1.07144885E-1,-1.0219909E0,-1.07103884E-1,-5.7867974E-1,1.7345332E0,-9.587681E-2,-4.8745808E-1,-1.067562E-1,1.3831838E0,1.7715546E-1,1.7432663E-1,-1.0193308E-1,-1.0483247E0,-8.0618143E-1,-8.229313E-1,3.8574576E-1,1.7564592E0,-4.6021998E-1,3.947298E-2,-8.150712E-2,1.7093135E-1,-8.149334E-2,-9.5726967E-1,-1.0571408E0,-3.68567E-1,-1.0701243E-1,-5.144556E-1,-1.0581791E0,1.0079919E0,-1.0602361E-1,1.1875705E0,1.7723985E0,-9.121121E-2,8.315984E-2,4.102543E-1,-9.646286E-1,-1.0312009E0,-1.070555E-1,-6.688897E-1,6.591385E-1,-8.1884676E-1,5.4129858E-2,-1.071314E-1,-3.7775582E-1,5.8168405E-1,1.6766778E0,1.447728E-1,-1.4591406E-3,5.4831233E-2,1.7742674E-1,-8.91534E-2,1.2613493E0,-1.0135787E0,-8.2995546E-1,-1.054615E0,-8.8781565E-1,4.9555454E-1,-8.8309443E-1,4.105582E0,4.8628163E-1,-1.1964423E-1,-1.0750506E-1,5.2778274E-1,-1.0529057E-1,1.454014E-1,-1.0062509E-1,1.0174795E0,-1.0791204E0,1.2171422E0,1.7962211E-1,-9.467828E-2,1.1348169E-1,1.7844336E-1,-6.1368346E-2,-8.976569E-2,-1.05761126E-1,-5.3038634E-2,-1.0691234E-1,-5.101027E-2,-1.0564925E-1,-6.9779016E-2,-1.07086435E-1,2.0563456E-3,3.2814273E-1,-1.0056974E-1,-3.0055488E-2,5.108965E-1,2.4995406E-1,8.134776E-3,2.0974846E-1,-8.773149E-2,7.085514E-2,3.700716E-1,2.8758654E-2,5.7042856E-2,1.6208301E-1,-5.1915413E-3,-1.14008285E-1,1.9716966E-1,-1.21676765E-1],"categories":[],"categories_nodes":[],"categories_segments":[],"categories_sizes":[],"default_left":[0,0,0,0,0,0,0,0,0,0,0,0,0,0,0,0,0,0,0,0,0,0,0,0,0,0,0,0,0,0,0,0,0,0,0,0,0,0,0,0,0,0,0,0,0,0,0,0,0,0,0,0,0,0,0,0,0,0,0,0,0,0,0,0,0,0,0,0,0,0,0,0,0,0,0,0,0,0,0,0,0,0,0,0,0,0,0,0,0,0,0,0,0,0,0,0,0,0,0,0,0,0,0,0,0,0,0,0,0,0,0,0,0],"id":6,"left_children":[1,3,5,7,9,-1,11,13,15,17,19,21,23,-1,25,-1,27,29,-1,31,-1,33,-1,-1,-1,35,37,39,41,43,45,-1,-1,-1,-1,47,49,51,-1,53,55,57,-1,59,61,-1,-1,63,65,67,-1,69,71,73,75,-1,77,79,81,-1,83,-1,-1,-1,85,87,89,91,93,95,97,99,101,103,-1,105,-1,-1,-1,107,109,111,-1,-1,-1,-1,-1,-1,-1,-1,-1,-1,-1,-1,-1,-1,-1,-1,-1,-1,-1,-1,-1,-1,-1,-1,-1,-1,-1,-1,-1,-1,-1],"loss_changes":[1.1505977E3,3.8801953E2,3.736016E3,1.0965625E2,3.3497773E3,0E0,2.2947144E1,3.09375E1,2.2065088E2,6.299829E1,5.515137E-1,4.2590332E-1,6.863568E1,0E0,1.21458984E2,0E0,3.569753E2,2.4725342E1,0E0,1.7751263E0,0E0,1.8782627E1,0E0,0E0,0E0,1.43828125E1,2.7044116E2,8.714874E1,2.76976E2,2.3591309E0,4.090887E0,0E0,0E0,0E0,0E0,1.7538208E1,4.9765625E0,2.7318683E2,0E0,9.086983E1,5.7140503E0,6.0285873E1,0E0,5.090042E0,1.1816406E-1,0E0,0E0,1.2003554E1,1.03302E1,1.9151855E1,0E0,1.7113452E2,1.1735652E2,6.111209E1,9.69945E1,0E0,1.8168581E1,9.7190475E1,2.3807373E0,0E0,5.319166E0,0E0,0E0,0E0,7.3245707E0,5.371704E0,3.219513E1,4.713867E0,2.868872E1,1.4148203E2,4.1006165E1,2.4325867E0,1.250371E2,5.885353E1,0E0,9.761195E1,0E0,0E0,0E0,2.7581558E1,1.6993256E0,3.9614365E1,0E0,0E0,0E0,0E0,0E0,0E0,0E0,0E0,0E0,0E0,0E0,0E0,0E0,0E0,0E0,0E0,0E0,0E0,0E0,0E0,0E0,0E0,0E0,0E0,0E0,0E0,0E0,0E0,0E0,0E0,0E0],"parents":[2147483647,0,0,1,1,2,2,3,3,4,4,6,6,7,7,8,8,9,9,10,10,11,11,12,12,14,14,16,16,17,17,19,19,21,21,25,25,26,26,27,27,28,28,29,29,30,30,35,35,36,36,37,37,39,39,40,40,41,41,43,43,44,44,47,47,48,48,49,49,51,51,52,52,53,53,54,54,56,56,57,57,58,58,60,60,64,64,65,65,66,66,67,67,68,68,69,69,70,70,71,71,72,72,73,73,75,75,79,79,80,80,81,81],"right_children":[2,4,6,8,10,-1,12,14,16,18,20,22,24,-1,26,-1,28,30,-1,32,-1,34,-1,-1,-1,36,38,40,42,44,46,-1,-1,-1,-1,48,50,52,-1,54,56,58,-1,60,62,-1,-1,64,66,68,-1,70,72,74,76,-1,78,80,82,-1,84,-1,-1,-1,86,88,90,92,94,96,98,100,102,104,-1,106,-1,-1,-1,108,110,112,-1,-1,-1,-1,-1,-1,-1,-1,-1,-1,-1,-1,-1,-1,-1,-1,-1,-1,-1,-1,-1,-1,-1,-1,-1,-1,-1,-1,-1,-1,-1],"split_conditions":[7.513217E5,1E0,7.31114E5,4.07E2,4.73791E3,-1.06995456E-1,3.9909E2,1E0,1E0,2.11433E3,5.2883E2,7.95141E5,4.73791E3,-1.07144885E-1,1.13631E5,-1.07103884E-1,1.101E5,3.9909E2,-9.587681E-2,4.5E1,-1.067562E-1,8.441167E5,1.7715546E-1,1.7432663E-1,-1.0193308E-1,1.1521196E5,3.9909E2,1.0157426E5,3.9909E2,2E1,4.75964E3,3.947298E-2,-8.150712E-2,1.7093135E-1,-8.149334E-2,8E0,1.1296602E5,2.6162775E5,-1.0701243E-1,2.1307E4,1.03561E5,2.73178E5,-1.0602361E-1,2.6330084E5,1.77E2,-9.121121E-2,8.315984E-2,1.57E2,3.2489E4,3.06408E4,-1.070555E-1,1.8009111E5,2.9964888E5,2.052003E4,3.9909E2,-1.071314E-1,1.09118E5,2.7079956E5,3.29672E5,1.447728E-1,2.4604506E5,5.4831233E-2,1.7742674E-1,-8.91534E-2,8.680355E4,2.215323E4,3.9909E2,5.2883E2,3.9909E2,1.54942E5,2.11845E5,2.6198202E5,5.1220306E5,3.04E2,-1.0750506E-1,2.998922E4,-1.0529057E-1,1.454014E-1,-1.0062509E-1,1.7076488E5,2.7466684E5,3.3490534E5,1.7962211E-1,-9.467828E-2,1.1348169E-1,1.7844336E-1,-6.1368346E-2,-8.976569E-2,-1.05761126E-1,-5.3038634E-2,-1.0691234E-1,-5.101027E-2,-1.0564925E-1,-6.9779016E-2,-1.07086435E-1,2.0563456E-3,3.2814273E-1,-1.0056974E-1,-3.0055488E-2,5.108965E-1,2.4995406E-1,8.134776E-3,2.0974846E-1,-8.773149E-2,7.085514E-2,3.700716E-1,2.8758654E-2,5.7042856E-2,1.6208301E-1,-5.1915413E-3,-1.14008285E-1,1.9716966E-1,-1.21676765E-1],"split_indices":[1,10,2,0,5,0,3,7,7,4,1,2,5,0,2,0,2,3,0,0,0,1,0,0,0,5,3,1,3,0,1,0,0,0,0,0,1,2,0,2,2,2,0,1,2,0,0,2,2,2,0,1,1,1,3,0,1,1,2,0,2,0,0,0,1,1,3,1,3,2,2,4,2,2,0,1,0,0,0,2,1,1,0,0,0,0,0,0,0,0,0,0,0,0,0,0,0,0,0,0,0,0,0,0,0,0,0,0,0,0,0,0,0],"split_type":[0,0,0,0,0,0,0,0,0,0,0,0,0,0,0,0,0,0,0,0,0,0,0,0,0,0,0,0,0,0,0,0,0,0,0,0,0,0,0,0,0,0,0,0,0,0,0,0,0,0,0,0,0,0,0,0,0,0,0,0,0,0,0,0,0,0,0,0,0,0,0,0,0,0,0,0,0,0,0,0,0,0,0,0,0,0,0,0,0,0,0,0,0,0,0,0,0,0,0,0,0,0,0,0,0,0,0,0,0,0,0,0,0],"sum_hessian":[6.5238348E4,6.2780902E4,2.4574453E3,5.8798562E4,3.9823389E3,1.7970133E3,6.604319E2,5.49843E4,3.814263E3,5.042504E2,3.4780886E3,6.183887E2,4.204323E1,3.346447E4,2.1519832E4,2.3011936E3,1.5130695E3,4.960044E2,8.245985E0,4.02876E0,3.4740598E3,2.3257694E1,5.95131E2,3.0169859E1,1.1873368E1,1.9176041E4,2.3437925E3,1.2074229E3,3.0564658E2,4.9129596E2,4.708445E0,1.0355072E0,2.9932525E0,2.044647E1,2.8112235E0,1.7024373E3,1.7473604E4,8.82693E2,1.4610996E3,5.237833E2,6.836395E2,2.1390167E2,9.174493E1,1.54479685E1,4.75848E2,3.7059836E0,1.0024616E0,8.819091E0,1.6936182E3,5.982539E3,1.1491063E4,6.8334937E2,1.9934364E2,3.4086288E2,1.8292046E2,6.701289E2,1.3510628E1,1.317664E2,8.2135254E1,1.24962435E1,2.9517257E0,1.1742133E0,4.7467377E2,3.46765E0,5.3514414E0,1.2373488E3,4.5626947E2,5.1372886E3,8.452505E2,1.059699E2,5.7737946E2,8.434002E0,1.9090964E2,9.179992E1,2.4906297E2,1.2847484E2,5.4445614E1,3.115861E0,1.0394767E1,1.04684525E2,2.7081886E1,1.9264044E1,6.2871212E1,1.7022814E0,1.2494444E0,4.221949E0,1.1294925E0,3.4650708E2,8.908416E2,2.0398558E2,2.5228389E2,1.858878E1,5.1187E3,4.1708276E2,4.2816776E2,9.139453E1,1.45753765E1,4.763906E2,1.0098889E2,3.848525E0,4.585477E0,1.5340562E2,3.7504017E1,4.7910202E1,4.3889717E1,8.027429E0,1.204474E2,6.124824E1,4.343628E1,1.6209426E0,2.5460945E1,1.4850145E1,4.413898E0],"tree_param":{"num_deleted":"0","num_feature":"11","num_nodes":"113","size_leaf_vector":"1"}},{"base_weights":[-9.8392904E-1,-1.0104823E0,-3.1602323E-1,-1.0311441E0,-7.072108E-1,-1.06252186E-1,1.5820915E0,-1.0431856E0,-8.5926664E-1,1.5641775E0,-1.0593394E0,1.6261656E0,8.9963776E-1,-1.0641831E-1,-1.0106238E0,-1.0637342E-1,-5.57689E-1,1.6054387E0,-9.4380766E-2,-4.644421E-1,-1.05991796E-1,1.4724724E0,1.6627552E-1,1.615646E-1,-1.004347E-1,-1.0388865E0,-7.835828E-1,-8.776337E-1,1.572139E-1,1.6254959E0,-4.3327227E-1,3.7786268E-2,-8.020695E-2,1.6058686E0,-9.702729E-2,-9.408132E-1,-1.0484682E0,-3.465631E-1,-1.06273055E-1,-3.6900443E-1,-1.06694356E-1,5.735356E-1,-1.05572976E-1,1.0866039E0,1.6409473E0,-8.893257E-2,7.718939E-2,6.659471E-2,1.6161658E-1,3.6422807E-1,-9.485052E-1,-1.0202171E0,-1.0631313E-1,-5.964277E-1,7.602785E-1,-9.7084403E-1,6.8102954E-3,2.4134299E-1,1.4947046E0,1.3194549E0,2.760604E-3,5.1321086E-2,1.6427523E-1,-8.688111E-2,1.0938025E0,-1.0011686E0,-8.060244E-1,-1.0456737E0,-8.666773E-1,4.673059E-1,-7.834172E-1,2.3827412E0,4.825057E-1,2.571599E-1,-1.06465176E-1,2.9071507E-1,-1.048065E-1,2.014682E0,8.495992E-4,2.0815514E-1,1.368691E0,6.8539214E-1,1.4819694E-1,-9.086717E-2,1.07226826E-1,1.5268154E-1,-5.9588272E-2,-8.7716386E-2,-1.04895346E-1,-5.010279E-2,-1.061306E-1,-4.8245963E-2,-1.0477161E-1,-6.69268E-2,-1.06318966E-1,6.4527537E-3,2.566166E-1,-9.7804844E-2,-1.9148521E-2,2.7823436E-1,3.1146272E-3,-2.8126566E-2,1.5189822E-1,2.1782307E-1,5.084023E-3,1.2050217E-1,2.718101E-1,-7.576344E-2,4.9570702E-2,-1.23770654E-1,1.5690874E-1,1.1593448E-1,-4.588821E-2],"categories":[],"categories_nodes":[],"categories_segments":[],"categories_sizes":[],"default_left":[0,0,0,0,0,0,0,0,0,0,0,0,0,0,0,0,0,0,0,0,0,0,0,0,0,0,0,0,0,0,0,0,0,0,0,0,0,0,0,0,0,0,0,0,0,0,0,0,0,0,0,0,0,0,0,0,0,0,0,0,0,0,0,0,0,0,0,0,0,0,0,0,0,0,0,0,0,0,0,0,0,0,0,0,0,0,0,0,0,0,0,0,0,0,0,0,0,0,0,0,0,0,0,0,0,0,0,0,0,0,0,0,0],"id":7,"left_children":[1,3,5,7,9,-1,11,13,15,17,19,21,23,-1,25,-1,27,29,-1,31,-1,33,-1,-1,-1,35,37,39,41,43,45,-1,-1,47,-1,49,51,53,-1,55,-1,57,-1,59,61,-1,-1,-1,-1,63,65,67,-1,69,71,73,75,77,79,81,83,-1,-1,-1,85,87,89,91,93,95,97,99,101,-1,-1,103,-1,105,107,-1,109,111,-1,-1,-1,-1,-1,-1,-1,-1,-1,-1,-1,-1,-1,-1,-1,-1,-1,-1,-1,-1,-1,-1,-1,-1,-1,-1,-1,-1,-1,-1,-1],"loss_changes":[1.0570508E3,3.585703E2,3.2338547E3,1.1020703E2,2.9294526E3,0E0,1.7916382E1,3.321875E1,2.1647437E2,5.2400024E1,5.983887E-1,9.481201E-1,5.795783E1,0E0,1.2550195E2,0E0,3.2595197E2,2.050122E1,0E0,1.68507E0,0E0,4.2248962E1,0E0,0E0,0E0,1.54609375E1,2.659757E2,9.43739E1,2.2342412E2,2.2105713E0,3.7127686E0,0E0,0E0,7.336426E-2,0E0,1.608142E1,5.517578E0,2.3621568E2,0E0,6.0732727E1,0E0,1.0035927E2,0E0,4.117384E0,1.0192871E-1,0E0,0E0,0E0,0E0,9.863314E0,1.088855E1,2.0473633E1,0E0,1.3881314E2,6.9805084E1,3.703676E1,5.0100372E1,1.0367471E2,3.5879974E0,3.691063E-1,4.7660637E0,0E0,0E0,0E0,5.788045E0,5.798828E0,3.261841E1,4.8867188E0,2.9693848E1,8.833486E1,6.805655E1,2.1301422E1,1.0783598E2,0E0,0E0,5.9561516E1,0E0,1.3258545E1,8.1099976E1,0E0,4.089476E1,3.0279438E0,0E0,0E0,0E0,0E0,0E0,0E0,0E0,0E0,0E0,0E0,0E0,0E0,0E0,0E0,0E0,0E0,0E0,0E0,0E0,0E0,0E0,0E0,0E0,0E0,0E0,0E0,0E0,0E0,0E0,0E0,0E0],"parents":[2147483647,0,0,1,1,2,2,3,3,4,4,6,6,7,7,8,8,9,9,10,10,11,11,12,12,14,14,16,16,17,17,19,19,21,21,25,25,26,26,27,27,28,28,29,29,30,30,33,33,35,35,36,36,37,37,39,39,41,41,43,43,44,44,49,49,50,50,51,51,53,53,54,54,55,55,56,56,57,57,58,58,59,59,60,60,64,64,65,65,66,66,67,67,68,68,69,69,70,70,71,71,72,72,75,75,77,77,78,78,80,80,81,81],"right_children":[2,4,6,8,10,-1,12,14,16,18,20,22,24,-1,26,-1,28,30,-1,32,-1,34,-1,-1,-1,36,38,40,42,44,46,-1,-1,48,-1,50,52,54,-1,56,-1,58,-1,60,62,-1,-1,-1,-1,64,66,68,-1,70,72,74,76,78,80,82,84,-1,-1,-1,86,88,90,92,94,96,98,100,102,-1,-1,104,-1,106,108,-1,110,112,-1,-1,-1,-1,-1,-1,-1,-1,-1,-1,-1,-1,-1,-1,-1,-1,-1,-1,-1,-1,-1,-1,-1,-1,-1,-1,-1,-1,-1,-1,-1],"split_conditions":[7.513217E5,1E0,7.31114E5,4.07E2,4.73791E3,-1.06252186E-1,3.9909E2,1E0,1E0,2.11433E3,5.2883E2,1.0494921E6,4.73791E3,-1.0641831E-1,1.13631E5,-1.0637342E-1,5.5987E4,3.9909E2,-9.4380766E-2,9.289553E4,-1.05991796E-1,1.1064261E6,1.6627552E-1,1.615646E-1,-1.004347E-1,1.1521196E5,3.9909E2,5.612198E4,3.9909E2,2E1,4.75964E3,3.7786268E-2,-8.020695E-2,2E1,-9.702729E-2,8E0,1.1296602E5,3.049062E5,-1.06273055E-1,3.04E2,-1.06694356E-1,2.6162775E5,-1.05572976E-1,2.6330084E5,1.77E2,-8.893257E-2,7.718939E-2,6.659471E-2,1.6161658E-1,1.57E2,3.2489E4,3.06408E4,-1.0631313E-1,1.7774623E5,3.6728975E5,1.7435E2,3.9909E2,9.045492E4,3.0883453E5,1.1296E4,2.4604506E5,5.1321086E-2,1.6427523E-1,-8.688111E-2,8.680355E4,2.215323E4,3.9909E2,5.2883E2,3.9909E2,1.54942E5,2.11845E5,3.46E2,4.6413838E5,2.571599E-1,-1.06465176E-1,9.34331E3,-1.048065E-1,5.95E2,1.101E5,2.0815514E-1,3.049062E5,1.030774E4,1.4819694E-1,-9.086717E-2,1.07226826E-1,1.5268154E-1,-5.9588272E-2,-8.7716386E-2,-1.04895346E-1,-5.010279E-2,-1.061306E-1,-4.8245963E-2,-1.0477161E-1,-6.69268E-2,-1.06318966E-1,6.4527537E-3,2.566166E-1,-9.7804844E-2,-1.9148521E-2,2.7823436E-1,3.1146272E-3,-2.8126566E-2,1.5189822E-1,2.1782307E-1,5.084023E-3,1.2050217E-1,2.718101E-1,-7.576344E-2,4.9570702E-2,-1.23770654E-1,1.5690874E-1,1.1593448E-1,-4.588821E-2],"split_indices":[1,10,2,0,5,0,3,7,7,4,1,2,5,0,2,0,2,3,0,4,0,1,0,0,0,5,3,1,3,0,1,0,0,0,0,0,1,2,0,2,0,2,0,1,2,0,0,0,0,2,2,2,0,1,1,1,3,1,1,2,2,0,0,0,1,1,3,1,3,2,2,0,2,0,0,1,0,0,2,0,2,1,0,0,0,0,0,0,0,0,0,0,0,0,0,0,0,0,0,0,0,0,0,0,0,0,0,0,0,0,0,0,0],"split_type":[0,0,0,0,0,0,0,0,0,0,0,0,0,0,0,0,0,0,0,0,0,0,0,0,0,0,0,0,0,0,0,0,0,0,0,0,0,0,0,0,0,0,0,0,0,0,0,0,0,0,0,0,0,0,0,0,0,0,0,0,0,0,0,0,0,0,0,0,0,0,0,0,0,0,0,0,0,0,0,0,0,0,0,0,0,0,0,0,0,0,0,0,0,0,0,0,0,0,0,0,0,0,0,0,0,0,0,0,0,0,0,0,0],"sum_hessian":[5.9619254E4,5.733916E4,2.2800945E3,5.3679598E4,3.659564E3,1.6368052E3,6.432894E2,5.0160363E4,3.5192322E3,4.9072495E2,3.1688389E3,6.029658E2,4.032359E1,3.047608E4,1.9684283E4,2.0957803E3,1.4234519E3,4.831363E2,7.5886483E0,3.8595989E0,3.1649795E3,1.2387497E2,4.7909085E2,2.9413757E1,1.0909832E1,1.7502012E4,2.1822715E3,9.832049E2,4.4024704E2,4.7863013E2,4.5061736E0,1.0702914E0,2.7893076E0,1.1778541E2,6.089558E0,1.5665737E3,1.5935438E4,8.5147955E2,1.330792E3,2.674856E2,7.157193E2,3.2814438E2,1.1210268E2,1.5329049E1,4.633011E2,3.459223E0,1.0469507E0,1.9880648E0,1.1579735E2,8.907813E0,1.5576659E3,5.468991E3,1.0466447E4,6.9503876E2,1.5644078E2,1.02214035E2,1.6527156E2,2.4210008E2,8.6044304E1,1.24392395E1,2.8898096E0,1.1962814E0,4.621048E2,3.2404113E0,5.667402E0,1.1328997E3,4.247662E2,4.6862124E3,7.8277905E2,1.0368775E2,5.91351E2,2.1760477E1,1.3468031E2,1.9554957E0,1.0025854E2,1.3079448E2,3.4477077E1,2.8030775E1,2.140693E2,1.2466995E1,7.357731E1,3.6022406E0,8.836999E0,1.6413972E0,1.2484123E0,4.5880256E0,1.0793759E0,3.2051028E2,8.1238947E2,1.9488768E2,2.2987852E2,1.7788322E1,4.668424E3,3.926963E2,3.900828E2,8.785821E1,1.5829544E1,4.4453323E2,1.468178E2,1.8443272E1,3.3172061E0,7.796048E1,5.6719833E1,1.3836644E1,1.1695783E2,1.4292589E1,1.3738185E1,8.431143E1,1.2975787E2,4.8836217E0,6.869369E1,2.5378892E0,1.0643512E0],"tree_param":{"num_deleted":"0","num_feature":"11","num_nodes":"113","size_leaf_vector":"1"}},{"base_weights":[-9.746168E-1,-1.0013746E0,-3.1031302E-1,-1.0221695E0,-6.9778717E-1,-1.0558522E-1,1.4833477E0,-1.0349008E0,-8.4261316E-1,1.4660734E0,-1.0523793E0,1.5235776E0,8.518308E-1,-1.0576971E-1,-9.997172E-1,-1.0572048E-1,-5.3663296E-1,1.5039433E0,-9.2903845E-2,-4.421187E-1,-1.053011E-1,1.3744074E0,1.5592654E-1,1.5141232E-1,-9.897109E-2,-1.0300014E0,-7.614393E-1,-8.5781115E-1,1.4349641E-1,1.5226986E0,-4.081667E-1,3.830967E-2,-7.827932E-2,1.4966741E0,-9.4970405E-2,-9.243404E-1,-1.040427E0,-3.2613456E-1,-1.05610244E-1,-3.1498793E-1,-1.0483539E0,5.1668835E-1,-1.0483619E-1,1.0104198E0,1.537685E0,-8.7063625E-2,7.8158334E-2,1.562246E-1,1.2217755E0,3.2395744E-1,-9.323495E-1,-1.0096278E0,-1.05647795E-1,-6.120077E-1,5.153273E-1,-6.82243E-1,3.5140565E-1,-1.0581807E0,-2.825569E-1,2.1545604E-1,1.3667527E0,1.224084E0,6.1907684E-3,4.8067577E-2,1.5394907E-1,-8.303848E-2,1.4857809E-1,-8.468012E-2,9.5946944E-1,-9.890062E-1,-7.818149E-1,-1.0373363E0,-8.452621E-1,8.0453974E-1,-7.709849E-1,2.4722018E0,3.3146995E-1,2.9026634E-1,-1.0383878E0,9.888807E-1,-1.0276618E-1,-3.719565E-2,-1.0595077E-1,1.9841096E-1,-9.4442E-2,5.237789E-1,-1.0899776E0,1.101072E0,1.6207586E-1,6.3057613E-1,1.3813803E-1,-8.734234E-2,1.0166639E-1,1.4390425E-1,-3.5024144E-2,-8.5636966E-2,-1.0409297E-1,-4.7221288E-2,-1.05424844E-1,-9.511796E-2,-1.05408624E-1,-6.406387E-2,-1.0562929E-1,3.0986523E-2,2.2295836E-1,-3.8361166E-2,-1.0712738E-1,1.5516478E-1,3.846636E-1,-1.0487697E-1,7.02092E-2,-5.8147676E-2,1.10928886E-1,-4.307542E-2,-1.0723531E-1,2.7541706E-1,4.04173E-2,2.1026395E-1,3.4708217E-2,-1.1280725E-2,-1.1088931E-1,1.3386306E-1,-1.3947254E-1,1.0706021E-1,-4.3712866E-2],"categories":[],"categories_nodes":[],"categories_segments":[],"categories_sizes":[],"default_left":[0,0,0,0,0,0,0,0,0,0,0,0,0,0,0,0,0,0,0,0,0,0,0,0,0,0,0,0,0,0,0,0,0,0,0,0,0,0,0,0,0,0,0,0,0,0,0,0,0,0,0,0,0,0,0,0,0,0,0,0,0,0,0,0,0,0,0,0,0,0,0,0,0,0,0,0,0,0,0,0,0,0,0,0,0,0,0,0,0,0,0,0,0,0,0,0,0,0,0,0,0,0,0,0,0,0,0,0,0,0,0,0,0,0,0,0,0,0,0,0,0,0,0,0,0],"id":8,"left_children":[1,3,5,7,9,-1,11,13,15,17,19,21,23,-1,25,-1,27,29,-1,31,-1,33,-1,-1,-1,35,37,39,41,43,45,-1,-1,47,-1,49,51,53,-1,55,57,59,-1,61,63,-1,-1,-1,65,67,69,71,-1,73,75,77,79,81,83,85,87,89,91,-1,-1,-1,-1,-1,93,95,97,99,101,103,105,107,109,111,113,115,-1,-1,-1,-1,-1,117,119,121,-1,123,-1,-1,-1,-1,-1,-1,-1,-1,-1,-1,-1,-1,-1,-1,-1,-1,-1,-1,-1,-1,-1,-1,-1,-1,-1,-1,-1,-1,-1,-1,-1,-1,-1,-1,-1],"loss_changes":[9.6758594E2,3.2972656E2,2.8228926E3,1.1110547E2,2.5785857E3,0E0,1.4450684E1,3.5628906E1,2.1274268E2,4.4327515E1,6.472168E-1,9.523926E-1,4.9542328E1,0E0,1.2911328E2,0E0,2.9309955E2,1.7344727E1,0E0,1.623563E0,0E0,3.5718033E1,0E0,0E0,0E0,1.663086E1,2.6051685E2,9.391052E1,1.922737E2,1.9932861E0,3.6066651E0,0E0,0E0,1.6513062E-1,0E0,1.4729492E1,6.1132812E0,1.9814203E2,0E0,5.8526848E1,4.772888E0,8.393668E1,0E0,3.4357738E0,1.1303711E-1,0E0,0E0,0E0,1.5724384E1,8.209518E0,1.1458008E1,2.1891602E1,0E0,1.3896037E2,7.440695E1,5.3599648E1,7.5986984E1,2.1160889E-1,1.6730927E1,9.880498E1,4.0109406E0,3.6379433E-1,4.283719E0,0E0,0E0,0E0,0E0,0E0,4.8459253E0,6.258606E0,3.2982117E1,5.165039E0,3.0698853E1,4.334985E1,6.3895996E1,1.6556E1,9.9098724E1,3.0653433E1,1.8672104E0,5.961003E1,0E0,0E0,0E0,0E0,0E0,5.453823E1,7.428055E-1,2.8602997E1,0E0,2.6343431E0,0E0,0E0,0E0,0E0,0E0,0E0,0E0,0E0,0E0,0E0,0E0,0E0,0E0,0E0,0E0,0E0,0E0,0E0,0E0,0E0,0E0,0E0,0E0,0E0,0E0,0E0,0E0,0E0,0E0,0E0,0E0,0E0,0E0,0E0,0E0],"parents":[2147483647,0,0,1,1,2,2,3,3,4,4,6,6,7,7,8,8,9,9,10,10,11,11,12,12,14,14,16,16,17,17,19,19,21,21,25,25,26,26,27,27,28,28,29,29,30,30,33,33,35,35,36,36,37,37,39,39,40,40,41,41,43,43,44,44,48,48,49,49,50,50,51,51,53,53,54,54,55,55,56,56,57,57,58,58,59,59,60,60,61,61,62,62,68,68,69,69,70,70,71,71,72,72,73,73,74,74,75,75,76,76,77,77,78,78,79,79,85,85,86,86,87,87,89,89],"right_children":[2,4,6,8,10,-1,12,14,16,18,20,22,24,-1,26,-1,28,30,-1,32,-1,34,-1,-1,-1,36,38,40,42,44,46,-1,-1,48,-1,50,52,54,-1,56,58,60,-1,62,64,-1,-1,-1,66,68,70,72,-1,74,76,78,80,82,84,86,88,90,92,-1,-1,-1,-1,-1,94,96,98,100,102,104,106,108,110,112,114,116,-1,-1,-1,-1,-1,118,120,122,-1,124,-1,-1,-1,-1,-1,-1,-1,-1,-1,-1,-1,-1,-1,-1,-1,-1,-1,-1,-1,-1,-1,-1,-1,-1,-1,-1,-1,-1,-1,-1,-1,-1,-1,-1,-1],"split_conditions":[7.513217E5,1E0,7.31114E5,4.07E2,4.73791E3,-1.0558522E-1,3.9909E2,1E0,1E0,2.11433E3,5.2883E2,1.0494921E6,4.73791E3,-1.0576971E-1,1.13631E5,-1.0572048E-1,5.5987E4,3.9909E2,-9.2903845E-2,4.5E1,-1.053011E-1,1.1064261E6,1.5592654E-1,1.5141232E-1,-9.897109E-2,1.1521196E5,3.9909E2,5.150478E4,3.9909E2,2E1,2.4604506E5,3.830967E-2,-7.827932E-2,1.1104022E6,-9.4970405E-2,8E0,1.1296602E5,2.6162775E5,-1.05610244E-1,1.26698E4,5.2484E4,2.6162775E5,-1.0483619E-1,2.6330084E5,1.77E2,-8.7063625E-2,7.8158334E-2,1.562246E-1,1E0,1.57E2,3.2489E4,3.06408E4,-1.05647795E-1,1.5968592E5,3.1376012E5,9.58384E3,3.9909E2,5.431915E4,5.612198E4,2.5975808E5,4.16141E5,1.1296E4,2.4604506E5,4.8067577E-2,1.5394907E-1,-8.303848E-2,1.4857809E-1,-8.468012E-2,3.575091E4,2.215323E4,3.9909E2,2.215323E4,3.9909E2,1.37664E5,2.5975808E5,2.8529412E5,3.1533375E5,3.04E2,1.163908E4,2.60211E4,-1.0276618E-1,-3.719565E-2,-1.0595077E-1,1.9841096E-1,-9.4442E-2,7.630201E4,2.6787438E5,4.1925247E5,1.6207586E-1,1.030774E4,1.3813803E-1,-8.734234E-2,1.0166639E-1,1.4390425E-1,-3.5024144E-2,-8.5636966E-2,-1.0409297E-1,-4.7221288E-2,-1.05424844E-1,-9.511796E-2,-1.05408624E-1,-6.406387E-2,-1.0562929E-1,3.0986523E-2,2.2295836E-1,-3.8361166E-2,-1.0712738E-1,1.5516478E-1,3.846636E-1,-1.0487697E-1,7.02092E-2,-5.8147676E-2,1.10928886E-1,-4.307542E-2,-1.0723531E-1,2.7541706E-1,4.04173E-2,2.1026395E-1,3.4708217E-2,-1.1280725E-2,-1.1088931E-1,1.3386306E-1,-1.3947254E-1,1.0706021E-1,-4.3712866E-2],"split_indices":[1,10,2,0,5,0,3,7,7,4,1,2,5,0,2,0,2,3,0,0,0,1,0,0,0,5,3,1,3,0,2,0,0,5,0,0,1,2,0,2,2,2,0,1,2,0,0,0,7,2,2,2,0,1,1,1,3,5,1,1,2,2,2,0,0,0,0,0,1,1,3,1,3,2,1,2,2,2,1,1,0,0,0,0,0,1,5,1,0,1,0,0,0,0,0,0,0,0,0,0,0,0,0,0,0,0,0,0,0,0,0,0,0,0,0,0,0,0,0,0,0,0,0,0,0],"split_type":[0,0,0,0,0,0,0,0,0,0,0,0,0,0,0,0,0,0,0,0,0,0,0,0,0,0,0,0,0,0,0,0,0,0,0,0,0,0,0,0,0,0,0,0,0,0,0,0,0,0,0,0,0,0,0,0,0,0,0,0,0,0,0,0,0,0,0,0,0,0,0,0,0,0,0,0,0,0,0,0,0,0,0,0,0,0,0,0,0,0,0,0,0,0,0,0,0,0,0,0,0,0,0,0,0,0,0,0,0,0,0,0,0,0,0,0,0,0,0,0,0,0,0,0,0],"sum_hessian":[5.4450566E4,5.2341758E4,2.1088064E3,4.898412E4,3.3576394E3,1.4899264E3,6.1888E2,4.5736453E4,3.2476655E3,4.723062E2,2.8853333E3,5.804882E2,3.83918E1,2.7736363E4,1.8000092E4,1.9074602E3,1.3402052E3,4.6532092E2,6.985264E0,3.7084215E0,2.8816248E3,1.1969429E2,4.607939E2,2.83675E1,1.0024298E1,1.5967375E4,2.0327164E3,9.1014514E2,4.3006003E2,4.6100275E2,4.3181887E0,1.0472192E0,2.6612024E0,1.1405036E2,5.6439257E0,1.4420631E3,1.4525312E4,8.213887E2,1.2113276E3,2.3716283E2,6.729823E2,3.2794205E2,1.0211797E2,1.5047838E1,4.459549E2,3.3026357E0,1.0155532E0,8.830412E1,2.5746244E1,8.941839E0,1.4331212E3,4.998277E3,9.527035E3,6.1330194E2,2.0808676E2,1.5288362E2,8.4279205E1,6.6407904E2,8.903257E0,2.4306277E2,8.4879265E1,1.2227361E1,2.820477E0,1.2161466E0,4.4473877E2,2.6901202E0,2.3056124E1,3.0290904E0,5.912749E0,1.0371857E3,3.9593558E2,4.272684E3,7.255925E2,6.1475063E1,5.5182684E2,1.6802633E1,1.9128413E2,4.1029926E1,1.1185368E2,5.783012E1,2.6449087E1,1.8246379E0,6.622544E2,1.5606779E0,7.3425794E0,1.9710779E2,4.5954987E1,4.4093693E1,4.0785572E1,3.6110482E0,8.616313E0,1.5803854E0,1.2400917E0,4.255702E0,1.6570469E0,2.967196E2,7.4046606E2,1.8660509E2,2.0933049E2,7.0486145E2,3.5678228E3,3.7043784E2,3.551547E2,4.6537853E1,1.4937211E1,2.4196677E2,3.098601E2,1.1337834E1,5.464798E0,4.0103653E1,1.5118048E2,2.0015772E1,2.1014154E1,6.6457043E0,1.05207985E2,1.3465654E1,4.4364468E1,1.8741835E1,1.7836595E2,1.0049132E0,4.4950073E1,4.068482E1,3.4088757E0,2.555255E0,1.0557933E0],"tree_param":{"num_deleted":"0","num_feature":"11","num_nodes":"125","size_leaf_vector":"1"}},{"base_weights":[-9.65862E-1,-9.927575E-1,-3.052998E-1,-1.0136318E0,-6.893328E-1,-1.0498523E-1,1.4048768E0,-1.0270972E0,-8.261391E-1,1.3865505E0,-1.0460564E0,1.4423144E0,8.114582E-1,-1.05189875E-1,-9.890201E-1,-1.0513586E-1,-5.162356E-1,1.4218398E0,-9.143748E-2,-4.208862E-1,-1.0467453E0,9.533004E-1,1.450553E-1,1.4311996E-1,-9.753213E-2,-1.0201396E0,-7.2736573E-1,-8.2390606E-1,1.6269194E-1,1.4396433E0,-3.8426995E-1,3.6697518E-2,-7.7044E-2,-6.667672E-1,-1.0474955E-1,1.2545127E-1,-1.12551875E-1,-1.0371501E0,-9.4311816E-1,-2.3450235E-1,-1.05005704E-1,-3.2832408E-1,-1.0559135E-1,5.199776E-1,-1.04121245E-1,9.450339E-1,1.4544619E0,-8.521399E-2,7.5663984E-2,4.4674084E-2,-8.992775E-2,-6.35886E-2,4.6780106E-2,-8.9920145E-1,-1.0485821E0,-7.9669803E-1,-1.0518142E-1,-4.9009997E-1,5.861483E-1,-6.074266E-1,4.8239642E-1,2.9453719E-2,9.8137754E-1,1.1429194E0,8.985037E-3,4.504733E-2,1.4563161E-1,-1.0272671E0,-5.934912E-1,-6.913499E-1,-1.0489813E0,-5.52036E-1,-1.0514134E-1,2.2045765E0,-5.877229E-1,2.6475316E-1,1.5471662E0,-6.7870796E-2,-1.0672345E-1,1.0823697E0,-1.003459E-1,9.113266E-1,-1.0825986E0,2.2305195E-1,8.60641E-1,5.8180505E-1,1.2973164E-1,-8.4067054E-2,9.668605E-2,-1.6997498E-2,-1.05107024E-1,4.2902012E-3,-1.0502988E-1,8.323037E-2,-8.589569E-2,-9.953027E-2,-1.0508972E-1,2.9135346E-1,-6.360977E-2,4.1274148E-1,1.5745197E-1,-2.5899915E-2,-1.06413774E-1,1.4988409E-1,-2.769791E-2,-5.5475187E-2,1.6362518E-1,-8.216311E-2,5.0453812E-2,4.9353585E-2,2.243642E-1,2.0273414E-1,6.153373E-2,-2.4013897E-2,-1.0948749E-1,-1.1026328E-1,1.0015279E-1,9.925623E-2,-4.165547E-2],"categories":[],"categories_nodes":[],"categories_segments":[],"categories_sizes":[],"default_left":[0,0,0,0,0,0,0,0,0,0,0,0,0,0,0,0,0,0,0,0,0,0,0,0,0,0,0,0,0,0,0,0,0,0,0,0,0,0,0,0,0,0,0,0,0,0,0,0,0,0,0,0,0,0,0,0,0,0,0,0,0,0,0,0,0,0,0,0,0,0,0,0,0,0,0,0,0,0,0,0,0,0,0,0,0,0,0,0,0,0,0,0,0,0,0,0,0,0,0,0,0,0,0,0,0,0,0,0,0,0,0,0,0,0,0,0,0,0,0],"id":9,"left_children":[1,3,5,7,9,-1,11,13,15,17,19,21,23,-1,25,-1,27,29,-1,31,33,35,-1,-1,-1,37,39,41,43,45,47,-1,-1,49,-1,-1,51,53,55,57,-1,59,-1,61,-1,63,65,-1,-1,-1,-1,-1,-1,67,69,71,-1,73,75,77,79,81,83,85,87,-1,-1,89,91,93,95,97,-1,99,101,103,105,107,-1,109,-1,111,113,-1,115,117,-1,-1,-1,-1,-1,-1,-1,-1,-1,-1,-1,-1,-1,-1,-1,-1,-1,-1,-1,-1,-1,-1,-1,-1,-1,-1,-1,-1,-1,-1,-1,-1,-1],"loss_changes":[8.828242E2,3.018164E2,2.479593E3,1.1196875E2,2.2803958E3,0E0,1.1953491E1,3.833203E1,2.0880273E2,3.7979126E1,6.906738E-1,8.5058594E-1,4.2747124E1,0E0,1.3328418E2,0E0,2.6423413E2,1.4871521E1,0E0,1.5396454E0,4.9560547E-2,4.02664E0,0E0,0E0,0E0,1.8291992E1,2.7856244E2,9.970911E1,1.7049538E2,1.8589478E0,3.3862727E0,0E0,0E0,2.4523659E0,0E0,0E0,1.3860703E0,1.8041992E1,4.168335E1,1.4605014E2,0E0,6.3409164E1,0E0,6.908209E1,0E0,2.895586E0,1.3775635E-1,0E0,0E0,0E0,0E0,0E0,0E0,3.5730713E1,8.5839844E-1,7.061633E1,0E0,1.4083041E2,5.0704834E1,5.15168E1,6.526574E1,1.471473E2,2.1806778E1,3.6645126E-1,3.8612492E0,0E0,0E0,1.3142639E1,8.039953E1,4.6315627E0,9.472656E-2,1.7222774E2,0E0,1.6222832E1,8.001303E1,8.413174E1,8.635239E0,4.2155228E1,0E0,3.428985E1,0E0,2.6389389E1,4.2353058E-1,0E0,4.123394E1,2.3022437E0,0E0,0E0,0E0,0E0,0E0,0E0,0E0,0E0,0E0,0E0,0E0,0E0,0E0,0E0,0E0,0E0,0E0,0E0,0E0,0E0,0E0,0E0,0E0,0E0,0E0,0E0,0E0,0E0,0E0,0E0,0E0,0E0,0E0],"parents":[2147483647,0,0,1,1,2,2,3,3,4,4,6,6,7,7,8,8,9,9,10,10,11,11,12,12,14,14,16,16,17,17,19,19,20,20,21,21,25,25,26,26,27,27,28,28,29,29,30,30,33,33,36,36,37,37,38,38,39,39,41,41,43,43,45,45,46,46,53,53,54,54,55,55,57,57,58,58,59,59,60,60,61,61,62,62,63,63,64,64,67,67,68,68,69,69,70,70,71,71,73,73,74,74,75,75,76,76,77,77,79,79,81,81,82,82,84,84,85,85],"right_children":[2,4,6,8,10,-1,12,14,16,18,20,22,24,-1,26,-1,28,30,-1,32,34,36,-1,-1,-1,38,40,42,44,46,48,-1,-1,50,-1,-1,52,54,56,58,-1,60,-1,62,-1,64,66,-1,-1,-1,-1,-1,-1,68,70,72,-1,74,76,78,80,82,84,86,88,-1,-1,90,92,94,96,98,-1,100,102,104,106,108,-1,110,-1,112,114,-1,116,118,-1,-1,-1,-1,-1,-1,-1,-1,-1,-1,-1,-1,-1,-1,-1,-1,-1,-1,-1,-1,-1,-1,-1,-1,-1,-1,-1,-1,-1,-1,-1,-1,-1],"split_conditions":[7.513217E5,1E0,7.31114E5,4.07E2,4.73791E3,-1.0498523E-1,3.9909E2,1E0,1E0,2.11433E3,5.2883E2,1.8E1,4.73791E3,-1.05189875E-1,1.2417671E5,-1.0513586E-1,6.3216E4,3.9909E2,-9.143748E-2,9.289553E4,8E0,4.498509E5,1.450553E-1,1.4311996E-1,-9.753213E-2,3.1202E4,3.9909E2,6.240754E4,3.9909E2,2E1,9.58384E3,3.6697518E-2,-7.7044E-2,6.09218E4,-1.0474955E-1,1.2545127E-1,5.66628E6,2.215323E4,1.2264128E5,3.049062E5,-1.05005704E-1,2.276686E4,-1.0559135E-1,1.54942E5,-1.04121245E-1,2.6330084E5,1.77E2,-8.521399E-2,7.5663984E-2,4.4674084E-2,-8.992775E-2,-6.35886E-2,4.6780106E-2,1.033E3,8E0,3.9909E2,-1.0518142E-1,1.469273E5,5.1220306E5,2.215323E4,3.9909E2,1.5322219E5,1.8009111E5,1.1296E4,2.4604506E5,4.504733E-2,1.4563161E-1,5.2883E2,3.9909E2,3.087117E4,3.177613E4,4.043767E4,-1.0514134E-1,1.2859007E5,3.042046E5,3.908718E5,1.4E1,3.04E2,-1.0672345E-1,4.2692E4,-1.003459E-1,8.32013E4,1.553688E5,2.2305195E-1,1.78111E5,1.030774E4,1.2973164E-1,-8.4067054E-2,9.668605E-2,-1.6997498E-2,-1.05107024E-1,4.2902012E-3,-1.0502988E-1,8.323037E-2,-8.589569E-2,-9.953027E-2,-1.0508972E-1,2.9135346E-1,-6.360977E-2,4.1274148E-1,1.5745197E-1,-2.5899915E-2,-1.06413774E-1,1.4988409E-1,-2.769791E-2,-5.5475187E-2,1.6362518E-1,-8.216311E-2,5.0453812E-2,4.9353585E-2,2.243642E-1,2.0273414E-1,6.153373E-2,-2.4013897E-2,-1.0948749E-1,-1.1026328E-1,1.0015279E-1,9.925623E-2,-4.165547E-2],"split_indices":[1,10,2,0,5,0,3,7,7,4,1,0,5,0,2,0,2,3,0,4,0,4,0,0,0,2,3,1,3,0,1,0,0,1,0,0,5,1,1,2,0,2,0,2,0,1,2,0,0,0,0,0,0,2,0,3,0,1,2,1,3,1,1,2,2,0,0,1,3,1,1,1,0,1,1,1,0,2,0,2,0,1,1,0,2,1,0,0,0,0,0,0,0,0,0,0,0,0,0,0,0,0,0,0,0,0,0,0,0,0,0,0,0,0,0,0,0,0,0],"split_type":[0,0,0,0,0,0,0,0,0,0,0,0,0,0,0,0,0,0,0,0,0,0,0,0,0,0,0,0,0,0,0,0,0,0,0,0,0,0,0,0,0,0,0,0,0,0,0,0,0,0,0,0,0,0,0,0,0,0,0,0,0,0,0,0,0,0,0,0,0,0,0,0,0,0,0,0,0,0,0,0,0,0,0,0,0,0,0,0,0,0,0,0,0,0,0,0,0,0,0,0,0,0,0,0,0,0,0,0,0,0,0,0,0,0,0,0,0,0,0],"sum_hessian":[4.9707242E4,4.776205E4,1.9451921E3,4.4685543E4,3.0765073E3,1.3554581E3,5.89734E2,4.1687164E4,2.9983806E3,4.5072342E2,2.625784E3,5.533912E2,3.6342827E1,2.5228182E4,1.645898E4,1.7350542E3,1.2633265E3,4.442914E2,6.4320335E0,3.5639539E0,2.62222E3,1.1102377E1,5.422888E2,2.7131367E1,9.21146E0,1.4706938E4,1.7520415E3,8.6921136E2,3.9411517E2,4.4015555E2,4.1358614E0,1.0799686E0,2.4839854E0,6.920456E0,2.6152996E3,8.51813E0,2.5842469E0,1.2036207E4,2.670732E3,6.9391516E2,1.0581262E3,2.7793668E2,5.912747E2,3.0435815E2,8.9757034E1,1.468778E1,4.2546774E2,3.1125546E0,1.0233068E0,1.0362761E0,5.88418E0,1.3085613E0,1.2756855E0,9.2721204E2,1.1108994E4,1.1414536E3,1.5292782E3,5.294248E2,1.644904E2,2.0694394E2,7.099274E1,1.480388E2,1.5631934E2,1.1942146E1,2.7456348E0,1.234003E0,4.2423376E2,6.5180365E2,2.7540836E2,1.4336863E1,1.1094657E4,5.838321E2,5.576216E2,1.775492E1,5.1166986E2,1.2422205E2,4.0268345E1,9.574307E1,1.1120087E2,5.076564E1,2.0227098E1,8.26649E1,6.537391E1,1.2237349E1,1.4408199E2,3.6058602E0,8.336286E0,1.5198529E0,1.225782E0,1.7828667E1,6.33975E2,1.1546146E2,1.5994691E2,1.0277904E0,1.33090725E1,4.00254E2,1.0694403E4,1.3029089E1,5.70803E2,3.0119717E0,1.4742949E1,3.0367758E2,2.079923E2,3.7356255E1,8.686579E1,1.4247646E0,3.8843582E1,4.1137257E1,5.4605812E1,3.463078E1,1.6134861E1,1.6102345E1,6.656255E1,1.2342566E0,6.4139656E1,9.190134E0,1.3489185E2,2.5588672E0,1.0469931E0],"tree_param":{"num_deleted":"0","num_feature":"11","num_nodes":"119","size_leaf_vector":"1"}},{"base_weights":[-9.575676E-1,-9.845875E-1,-3.005962E-1,-1.0071336E0,-6.9244933E-1,-1.04444064E-1,1.3358738E0,-1.0197172E0,-8.125213E-1,-8.100937E-1,2.2344197E-1,1.3707645E0,7.7667916E-1,-1.04670875E-1,-9.785158E-1,1.251352E0,-1.0397714E0,-1.0461153E-1,-4.9685538E-1,1.4053928E0,-1.040857E-1,1.2097948E0,1.4101635E-1,1.3616434E0,-9.647281E-2,-1.0134599E0,-7.156578E-1,1.3085285E0,-8.9974545E-2,-3.7650743E-1,-1.0405837E0,-8.190163E-1,1.1847953E-1,1.4110504E-1,2.0701101E-2,1.3371154E0,-9.5480524E-2,4.202321E-2,1.3863683E-1,-8.902888E-1,-1.025868E0,-2.8459668E-1,-1.0447817E-1,1.3341737E0,-5.651084E-1,3.8335416E-2,-7.425227E-2,-6.4242846E-1,-1.04146555E-1,-3.0392402E-1,-1.0482099E-1,4.2134693E-1,-1.03535615E-1,1.4067177E-1,1.0549401E0,3.275529E-1,-8.9920515E-1,-9.892581E-1,-1.0451354E-1,-6.077838E-1,3.2733873E-1,8.2825464E-1,1.3730802E-1,-6.9465004E-2,-1.03583075E-2,4.5036178E-2,-8.858379E-2,-8.637059E-1,3.9523523E-2,-5.4932E-2,8.541572E-1,-8.425085E-2,1.3327868E-1,-8.0783926E-2,8.7978256E-1,-9.6510684E-1,-7.297648E-1,-1.0106095E0,-7.0075566E-1,3.523029E-1,-8.942705E-1,4.943449E0,1.7782962E-1,1.2533717E-1,-1.3059117E-1,1.2425076E0,-1.0462641E-1,2.9643515E-1,-1.0311669E-1,8.04E-1,-1.0330212E0,1.8351798E0,7.078575E-1,1.2613145E-1,-2.9420063E-2,-8.1378326E-2,-1.0264852E-1,-4.0720943E-2,-1.0420134E-1,-1.040945E-1,-9.27879E-2,1.9786246E-3,-1.0427079E-1,8.887836E-3,3.071493E-1,-4.4489525E-2,-1.056227E-1,6.383436E-1,2.6216352E-1,-1.1540847E-2,1.1534995E-1,2.3749423E-1,4.10085E-2,1.1410612E-2,2.0410688E-1,5.124352E-2,1.8044934E-1,-1.1015072E-1,1.8143333E-2,2.1938045E-1,1.2555005E-1,-1.0916034E-1,8.987173E-2],"categories":[],"categories_nodes":[],"categories_segments":[],"categories_sizes":[],"default_left":[0,0,0,0,0,0,0,0,0,0,0,0,0,0,0,0,0,0,0,0,0,0,0,0,0,0,0,0,0,0,0,0,0,0,0,0,0,0,0,0,0,0,0,0,0,0,0,0,0,0,0,0,0,0,0,0,0,0,0,0,0,0,0,0,0,0,0,0,0,0,0,0,0,0,0,0,0,0,0,0,0,0,0,0,0,0,0,0,0,0,0,0,0,0,0,0,0,0,0,0,0,0,0,0,0,0,0,0,0,0,0,0,0,0,0,0,0,0,0,0,0,0,0],"id":10,"left_children":[1,3,5,7,9,-1,11,13,15,17,19,21,23,-1,25,27,29,-1,31,33,-1,35,-1,37,-1,39,41,43,-1,45,47,49,51,-1,-1,53,-1,-1,-1,55,57,59,-1,61,63,-1,-1,65,-1,67,-1,69,-1,-1,71,73,75,77,-1,79,81,83,-1,-1,-1,-1,-1,85,87,89,91,-1,-1,-1,93,95,97,99,101,103,105,107,109,-1,-1,111,-1,113,-1,115,117,119,121,-1,-1,-1,-1,-1,-1,-1,-1,-1,-1,-1,-1,-1,-1,-1,-1,-1,-1,-1,-1,-1,-1,-1,-1,-1,-1,-1,-1,-1,-1],"loss_changes":[8.049297E2,2.8627734E2,2.184425E3,9.821875E1,3.36875E2,0E0,9.878174E0,4.121875E1,1.1556846E3,2.0421875E2,5.3414874E2,1.6339111E0,3.721826E1,0E0,1.375166E2,3.1259064E1,8.034668E-1,0E0,2.3637622E2,9.598999E-1,0E0,3.175444E1,0E0,4.1179657E-2,0E0,1.9384766E1,2.5073242E2,1.2221344E1,0E0,1.4749625E0,1.0839844E-1,9.205353E1,1.4387494E2,0E0,0E0,5.7547E-1,0E0,0E0,0E0,1.357605E1,7.4726562E0,1.5197559E2,0E0,3.5028076E0,1.6270554E-1,0E0,0E0,2.394703E0,0E0,4.662776E1,0E0,6.721302E1,0E0,0E0,1.4169224E1,6.7442083E0,1.2857056E1,2.502295E1,0E0,1.3854427E2,1.8262155E2,1.9196154E1,0E0,0E0,0E0,0E0,0E0,3.675026E1,4.188446E1,1.3194241E2,2.3209763E1,0E0,0E0,0E0,3.4852767E0,7.257324E0,3.424138E1,8.789307E0,7.174432E1,8.297168E1,2.772052E1,1.1028885E1,7.411401E1,0E0,0E0,6.389201E0,0E0,3.8791706E1,0E0,2.3478561E1,6.305458E0,1.7221985E0,5.2577423E1,0E0,0E0,0E0,0E0,0E0,0E0,0E0,0E0,0E0,0E0,0E0,0E0,0E0,0E0,0E0,0E0,0E0,0E0,0E0,0E0,0E0,0E0,0E0,0E0,0E0,0E0,0E0,0E0,0E0,0E0],"parents":[2147483647,0,0,1,1,2,2,3,3,4,4,6,6,7,7,8,8,9,9,10,10,11,11,12,12,14,14,15,15,16,16,18,18,19,19,21,21,23,23,25,25,26,26,27,27,29,29,30,30,31,31,32,32,35,35,39,39,40,40,41,41,43,43,44,44,47,47,49,49,51,51,54,54,55,55,56,56,57,57,59,59,60,60,61,61,67,67,68,68,69,69,70,70,74,74,75,75,76,76,77,77,78,78,79,79,80,80,81,81,82,82,85,85,87,87,89,89,90,90,91,91,92,92],"right_children":[2,4,6,8,10,-1,12,14,16,18,20,22,24,-1,26,28,30,-1,32,34,-1,36,-1,38,-1,40,42,44,-1,46,48,50,52,-1,-1,54,-1,-1,-1,56,58,60,-1,62,64,-1,-1,66,-1,68,-1,70,-1,-1,72,74,76,78,-1,80,82,84,-1,-1,-1,-1,-1,86,88,90,92,-1,-1,-1,94,96,98,100,102,104,106,108,110,-1,-1,112,-1,114,-1,116,118,120,122,-1,-1,-1,-1,-1,-1,-1,-1,-1,-1,-1,-1,-1,-1,-1,-1,-1,-1,-1,-1,-1,-1,-1,-1,-1,-1,-1,-1,-1,-1],"split_conditions":[7.513217E5,4.07E2,7.31114E5,1E0,1E0,-1.04444064E-1,3.9909E2,1E0,4.73791E3,1E0,4.73791E3,1.0494921E6,2.11433E3,-1.04670875E-1,1.13631E5,2.11433E3,5.2883E2,-1.0461153E-1,5.5987E4,3.9909E2,-1.040857E-1,1.1064261E6,1.4101635E-1,5.0938784E5,-9.647281E-2,1.1521196E5,3.9909E2,3.9909E2,-8.9974545E-2,9.289553E4,8E0,5.612198E4,3.9909E2,1.4110504E-1,2.0701101E-2,1.1104022E6,-9.5480524E-2,4.202321E-2,1.3863683E-1,8E0,1.1296602E5,2.27754E5,-1.0447817E-1,1.1674E4,8.699944E4,3.8335416E-2,-7.425227E-2,5.769575E4,-1.04146555E-1,1.481E3,-1.0482099E-1,1.4293652E5,-1.03535615E-1,1.4067177E-1,1E0,1.57E2,3.2489E4,5.5987E4,-1.0451354E-1,1.8009111E5,2.5630294E5,1.163908E4,1.3730802E-1,-6.9465004E-2,-1.03583075E-2,4.5036178E-2,-8.858379E-2,1.21411E3,3.9909E2,1.3664675E5,1.8009111E5,-8.425085E-2,1.3327868E-1,-8.0783926E-2,3.575091E4,2.215323E4,3.9909E2,2.567E3,3.9909E2,1.6450398E5,2.2748867E5,6.927097E5,4.6413838E5,1.2533717E-1,-1.3059117E-1,1.7435E2,-1.0462641E-1,4.2692E4,-1.0311669E-1,1.07478E5,1.37664E5,1.6189742E5,1.78111E5,1.2613145E-1,-2.9420063E-2,-8.1378326E-2,-1.0264852E-1,-4.0720943E-2,-1.0420134E-1,-1.040945E-1,-9.27879E-2,1.9786246E-3,-1.0427079E-1,8.887836E-3,3.071493E-1,-4.4489525E-2,-1.056227E-1,6.383436E-1,2.6216352E-1,-1.1540847E-2,1.1534995E-1,2.3749423E-1,4.10085E-2,1.1410612E-2,2.0410688E-1,5.124352E-2,1.8044934E-1,-1.1015072E-1,1.8143333E-2,2.1938045E-1,1.2555005E-1,-1.0916034E-1,8.987173E-2],"split_indices":[1,0,2,10,10,0,3,7,5,7,5,2,4,0,2,4,1,0,2,3,0,1,0,3,0,5,3,3,0,4,0,1,3,0,0,5,0,0,0,0,1,2,0,2,2,0,0,1,0,2,0,2,0,0,7,2,2,2,0,1,1,1,0,0,0,0,0,1,3,1,1,0,0,0,1,1,3,2,3,2,1,5,2,0,0,1,0,2,0,2,2,1,2,0,0,0,0,0,0,0,0,0,0,0,0,0,0,0,0,0,0,0,0,0,0,0,0,0,0,0,0,0,0],"split_type":[0,0,0,0,0,0,0,0,0,0,0,0,0,0,0,0,0,0,0,0,0,0,0,0,0,0,0,0,0,0,0,0,0,0,0,0,0,0,0,0,0,0,0,0,0,0,0,0,0,0,0,0,0,0,0,0,0,0,0,0,0,0,0,0,0,0,0,0,0,0,0,0,0,0,0,0,0,0,0,0,0,0,0,0,0,0,0,0,0,0,0,0,0,0,0,0,0,0,0,0,0,0,0,0,0,0,0,0,0,0,0,0,0,0,0,0,0,0,0,0,0,0,0],"sum_hessian":[4.5360535E4,4.3568168E4,1.7923685E3,4.0444383E4,3.1237861E3,1.232505E3,5.598635E2,3.798409E4,2.460291E3,2.768317E3,3.5546924E2,5.2561664E2,3.4246906E1,2.2934822E4,1.5049269E4,2.4358241E2,2.2167087E3,1.5774137E3,1.1909032E3,1.8366002E2,1.718092E2,1.09587555E2,4.1602905E2,2.579879E1,8.448113E0,1.3280866E4,1.7684026E3,2.3765715E2,5.9252715E0,3.2798414E0,2.2134287E3,7.8144415E2,4.0945905E2,1.826204E2,1.0396183E0,1.03860794E2,5.7267613E0,1.1207817E0,2.4678009E1,1.2221095E3,1.2058757E4,7.6644147E2,1.00196106E3,2.3473221E2,2.924941E0,1.0508548E0,2.2289865E0,6.502964E0,2.2069258E3,2.4135237E2,5.400918E2,3.2483008E2,8.462899E1,8.01143E1,2.3746489E1,8.622828E0,1.2134866E3,4.1760977E3,7.882659E3,5.0155655E2,2.6488492E2,1.8354055E1,2.1637814E2,1.8894808E0,1.0354601E0,1.0297345E0,5.4732294E0,9.119679E1,1.5015558E2,1.5506473E2,1.6976534E2,2.773518E0,2.0972971E1,2.6701307E0,5.9526963E0,8.702991E2,3.431876E2,3.8860002E3,2.900972E2,1.15214584E2,3.8634195E2,7.3041444E0,2.5758078E2,1.5649461E1,2.704595E0,6.8109784E0,8.438582E1,1.2168134E2,2.8474237E1,8.265622E1,7.240851E1,2.0533388E1,1.4923195E2,4.4364944E0,1.5162017E0,2.5525253E2,6.150465E2,1.6994113E2,1.7324644E2,2.8349177E3,1.0510825E3,9.3667854E1,1.9642934E2,1.0598031E2,9.234274E0,1.0334396E2,2.82998E2,3.4284759E0,3.8756683E0,1.9873315E2,5.8847637E1,2.100454E0,4.7105246E0,1.1113246E2,1.0548882E1,6.517502E1,1.7481194E1,6.863123E1,3.7772777E0,1.0965162E1,9.568225E0,1.3857887E1,1.3537407E2],"tree_param":{"num_deleted":"0","num_feature":"11","num_nodes":"123","size_leaf_vector":"1"}},{"base_weights":[-9.496759E-1,-9.767433E-1,-2.9655913E-1,-1.0000724E0,-6.7860955E-1,-1.03954576E-1,1.281975E0,-1.012677E0,-8.055162E-1,-7.9390484E-1,2.1727765E-1,1.3364337E-1,9.370214E-1,-1.0420579E-1,-9.681068E-1,1.195031E0,-1.0344299E0,-1.0414057E-1,-4.7741297E-1,1.3499165E0,-1.0356476E-1,-1.0137849E-1,1.3322445E0,-1.0055982E0,-6.9300497E-1,1.2492867E0,-8.850927E-2,-3.576904E-1,-1.035318E0,-7.9888445E-1,1.0802259E-1,1.3557814E-1,1.9571938E-2,2.8627757E-2,1.345355E-1,-8.7304145E-1,-1.0191244E0,-2.664547E-1,-1.0399373E-1,1.2743363E0,-5.467455E-1,3.7946936E-2,-7.2589695E-2,-6.1819446E-1,-1.0362818E-1,-2.4834973E-1,-1.0293261E0,3.8287082E-1,-1.029542E-1,-9.422476E-1,-6.980674E-1,-9.7915596E-1,-1.0402762E-1,-5.326814E-1,4.0422705E-1,8.6394197E-1,1.3251232E-1,-6.799012E-2,-1.0136566E-2,4.1832466E-2,-8.710879E-2,-9.0315336E-1,6.346125E-2,-1.0412441E0,-2.3053575E-1,1.6605315E-1,1.2277265E0,-7.980876E-1,-1.0369815E-1,-3.7026206E-1,-1.0367268E-1,-1.0149819E0,-7.786621E-1,-9.63612E-2,-1.0509638E-1,3.0449648E0,2.911318E-1,1.197691E0,-1.3296437E-1,2.0113479E-1,-1.0370058E-1,3.0710104E-1,-1.0230781E-1,-3.5865273E-2,-1.04289904E-1,1.3074417E-1,-9.002453E-2,3.4335127E-1,-1.1352598E-1,9.322127E-1,1.4176594E-1,6.0738247E-2,-8.290925E-2,3.632633E-1,-5.188787E-2,-9.044573E-2,-1.03693746E-1,-5.5319626E-2,-1.0395419E-1,-2.770227E-2,2.802588E-1,3.9532173E-1,1.7174041E-1,3.971283E-3,1.2870075E-1,2.155785E-2,1.235937E-1,8.780339E-3,1.6614826E-1,3.7311825E-3,8.250623E-2,1.1915799E-1,-1.4456062E-1],"categories":[],"categories_nodes":[],"categories_segments":[],"categories_sizes":[],"default_left":[0,0,0,0,0,0,0,0,0,0,0,0,0,0,0,0,0,0,0,0,0,0,0,0,0,0,0,0,0,0,0,0,0,0,0,0,0,0,0,0,0,0,0,0,0,0,0,0,0,0,0,0,0,0,0,0,0,0,0,0,0,0,0,0,0,0,0,0,0,0,0,0,0,0,0,0,0,0,0,0,0,0,0,0,0,0,0,0,0,0,0,0,0,0,0,0,0,0,0,0,0,0,0,0,0,0,0,0,0,0,0,0,0],"id":11,"left_children":[1,3,5,7,9,-1,11,13,15,17,19,-1,21,-1,23,25,27,-1,29,31,-1,-1,33,35,37,39,-1,41,43,45,47,-1,-1,-1,-1,49,51,53,-1,55,57,-1,-1,59,-1,61,63,65,-1,67,69,71,-1,73,75,77,-1,-1,-1,-1,-1,79,81,83,85,87,89,91,-1,93,-1,95,97,99,-1,101,103,105,-1,-1,-1,107,-1,-1,-1,-1,-1,109,-1,111,-1,-1,-1,-1,-1,-1,-1,-1,-1,-1,-1,-1,-1,-1,-1,-1,-1,-1,-1,-1,-1,-1,-1],"loss_changes":[7.312344E2,2.7567578E2,1.9343003E3,8.954297E1,2.9833423E2,0E0,8.665039E0,4.4304688E1,1.0301868E3,1.9985168E2,4.6958612E2,0E0,5.9427277E1,0E0,1.4123828E2,2.7194427E1,8.417969E-1,0E0,2.1167184E2,9.10553E-1,0E0,0E0,4.7972107E-1,2.0820312E1,2.4444623E2,1.0851074E1,0E0,1.4075843E0,1.6894531E-1,9.183124E1,1.2526821E2,0E0,0E0,0E0,0E0,1.3003296E1,8.264648E0,1.3289645E2,0E0,3.5009155E0,1.5670037E-1,0E0,0E0,2.2308028E0,0E0,4.405624E1,4.628174E0,5.8854E1,0E0,1.0173645E1,3.5540604E1,2.662915E1,0E0,1.2028703E2,6.2344936E1,2.1666521E1,0E0,0E0,0E0,0E0,0E0,2.9230026E1,3.9206318E1,1.9476318E-1,1.0242929E1,5.985064E1,2.365242E0,1.4612839E1,0E0,1.00632774E2,0E0,6.91333E0,3.371704E1,1.5273094E2,0E0,3.5673523E0,5.105973E1,6.472397E-1,0E0,0E0,0E0,3.5725895E1,0E0,0E0,0E0,0E0,0E0,3.352015E1,0E0,1.937341E1,0E0,0E0,0E0,0E0,0E0,0E0,0E0,0E0,0E0,0E0,0E0,0E0,0E0,0E0,0E0,0E0,0E0,0E0,0E0,0E0,0E0,0E0,0E0],"parents":[2147483647,0,0,1,1,2,2,3,3,4,4,6,6,7,7,8,8,9,9,10,10,12,12,14,14,15,15,16,16,18,18,19,19,22,22,23,23,24,24,25,25,27,27,28,28,29,29,30,30,35,35,36,36,37,37,39,39,40,40,43,43,45,45,46,46,47,47,49,49,50,50,51,51,53,53,54,54,55,55,61,61,62,62,63,63,64,64,65,65,66,66,67,67,69,69,71,71,72,72,73,73,75,75,76,76,77,77,81,81,87,87,89,89],"right_children":[2,4,6,8,10,-1,12,14,16,18,20,-1,22,-1,24,26,28,-1,30,32,-1,-1,34,36,38,40,-1,42,44,46,48,-1,-1,-1,-1,50,52,54,-1,56,58,-1,-1,60,-1,62,64,66,-1,68,70,72,-1,74,76,78,-1,-1,-1,-1,-1,80,82,84,86,88,90,92,-1,94,-1,96,98,100,-1,102,104,106,-1,-1,-1,108,-1,-1,-1,-1,-1,110,-1,112,-1,-1,-1,-1,-1,-1,-1,-1,-1,-1,-1,-1,-1,-1,-1,-1,-1,-1,-1,-1,-1,-1,-1],"split_conditions":[7.513217E5,4.07E2,7.31114E5,1E0,1E0,-1.03954576E-1,8.9263706E5,1E0,4.73791E3,1E0,4.73791E3,1.3364337E-1,1E0,-1.0420579E-1,1.13631E5,2.11433E3,5.2883E2,-1.0414057E-1,5.5987E4,3.9909E2,-1.0356476E-1,-1.0137849E-1,1.934639E6,1.1521196E5,3.9909E2,3.9909E2,-8.850927E-2,4.5E1,8E0,5.150478E4,3.9909E2,1.3557814E-1,1.9571938E-2,2.8627757E-2,1.345355E-1,3.2489E4,1.1296602E5,2.6162775E5,-1.0399373E-1,2.0214E4,3.66307E3,3.7946936E-2,-7.2589695E-2,5.769575E4,-1.0362818E-1,3.04E2,5.2484E4,3.049062E5,-1.029542E-1,3.177613E4,3.9909E2,3.06408E4,-1.0402762E-1,2.5975808E5,2.866713E5,2.052003E4,1.3251232E-1,-6.799012E-2,-1.0136566E-2,4.1832466E-2,-8.710879E-2,1.7435E2,3.9909E2,5.431915E4,5.612198E4,2.9964888E5,4.16141E5,9E0,-1.0369815E-1,4.043767E4,-1.0367268E-1,2.215323E4,3.9909E2,2.1917231E5,-1.0509638E-1,2.7466684E5,5.1220306E5,1.57E2,-1.3296437E-1,2.0113479E-1,-1.0370058E-1,3.3461E4,-1.0230781E-1,-3.5865273E-2,-1.04289904E-1,1.3074417E-1,-9.002453E-2,1.4293652E5,-1.1352598E-1,4.1925247E5,1.4176594E-1,6.0738247E-2,-8.290925E-2,3.632633E-1,-5.188787E-2,-9.044573E-2,-1.03693746E-1,-5.5319626E-2,-1.0395419E-1,-2.770227E-2,2.802588E-1,3.9532173E-1,1.7174041E-1,3.971283E-3,1.2870075E-1,2.155785E-2,1.235937E-1,8.780339E-3,1.6614826E-1,3.7311825E-3,8.250623E-2,1.1915799E-1,-1.4456062E-1],"split_indices":[1,0,2,10,10,0,4,7,5,7,5,0,7,0,2,4,1,0,2,3,0,0,5,5,3,3,0,0,0,1,3,0,0,0,0,2,1,2,0,2,1,0,0,1,0,2,2,2,0,1,3,2,0,1,1,1,0,0,0,0,0,1,3,5,1,1,2,0,0,1,0,1,3,2,0,1,2,2,0,0,0,2,0,0,0,0,0,2,0,1,0,0,0,0,0,0,0,0,0,0,0,0,0,0,0,0,0,0,0,0,0,0,0],"split_type":[0,0,0,0,0,0,0,0,0,0,0,0,0,0,0,0,0,0,0,0,0,0,0,0,0,0,0,0,0,0,0,0,0,0,0,0,0,0,0,0,0,0,0,0,0,0,0,0,0,0,0,0,0,0,0,0,0,0,0,0,0,0,0,0,0,0,0,0,0,0,0,0,0,0,0,0,0,0,0,0,0,0,0,0,0,0,0,0,0,0,0,0,0,0,0,0,0,0,0,0,0,0,0,0,0,0,0,0,0,0,0,0,0],"sum_hessian":[4.137915E4,3.9732027E4,1.647123E3,3.684642E4,2.8856035E3,1.1202048E3,5.2691815E2,3.4600574E4,2.245849E3,2.556687E3,3.2891632E2,4.525921E2,7.432604E1,2.0840184E4,1.3760391E4,2.3016306E2,2.015686E3,1.4334329E3,1.1232543E3,1.7270992E2,1.562064E2,1.2257651E1,6.206839E1,1.2107677E4,1.652714E3,2.247016E2,5.4614434E0,3.1710236E0,2.012515E3,7.248588E2,3.9839545E2,1.7166298E2,1.0469415E0,1.0510423E0,6.1017345E1,1.1271495E3,1.0980526E4,7.420895E2,9.106245E2,2.2189722E2,2.8043911E0,1.0461048E0,2.124919E0,6.120183E0,2.0063948E3,2.1449615E2,5.1036264E2,3.2140408E2,7.699137E1,8.0454767E2,3.2260193E2,3.8163794E3,7.1641475E3,5.313688E2,2.107207E2,2.6419508E1,1.954777E2,1.7535617E0,1.0508294E0,1.0720564E0,5.0481267E0,6.85805E1,1.4591566E2,5.025608E2,7.8018703E0,2.567183E2,6.468579E1,3.2278235E2,4.817653E2,1.6499162E2,1.576103E2,3.2343735E3,5.8200604E2,2.8913992E2,2.4222882E2,7.5892916E0,2.0313142E2,2.332471E1,3.094798E0,2.3954463E0,6.618505E1,1.1977525E2,2.6140406E1,1.7419494E0,5.0081882E2,2.0778558E0,5.7240148E0,2.2658345E2,3.0134842E1,2.7620148E1,3.7065647E1,6.5656843E0,3.1621667E2,5.0671864E0,1.5992444E2,5.430188E2,2.6913547E3,3.1386667E2,2.681394E2,2.7302927E2,1.611065E1,3.3319368E0,4.257355E0,1.6301619E2,4.0115223E1,1.1230373E0,2.2201674E1,1.04000595E2,1.5774654E1,1.392151E2,8.736834E1,2.535352E1,2.266629E0],"tree_param":{"num_deleted":"0","num_feature":"11","num_nodes":"113","size_leaf_vector":"1"}},{"base_weights":[-9.420301E-1,-9.6911997E-1,-2.9285365E-1,-9.932917E-1,-6.646825E-1,-1.0351052E-1,1.2336569E0,-1.0058908E0,-7.990983E-1,-7.773395E-1,2.1197262E-1,1.2664658E0,7.0614016E-1,-1.03788614E-1,-9.576828E-1,1.1471694E0,-1.0294958E0,-1.0371687E-1,-4.5788875E-1,1.3032783E0,-1.0308571E-1,1.1010466E0,1.3073818E-1,1.2558686E0,-9.401153E-2,-9.9937594E-1,-6.7943645E-1,1.1991159E0,-8.7037124E-2,-3.3988115E-1,-1.0304662E0,-7.8266245E-1,9.185713E-2,1.3094258E-1,1.8506091E-2,1.2275517E0,-9.3778655E-2,3.401813E-2,1.2822887E-1,-9.3754774E-1,-1.0356579E-1,-2.8582278E-1,-1.0356902E-1,1.223842E0,-5.2876663E-1,3.67175E-2,-7.132046E-2,-5.943069E-1,-1.0315205E-1,-2.2836499E-1,-1.0324929E0,3.3950132E-1,-1.02442026E-1,1.2964651E-1,9.495403E-1,-1.0110902E0,-7.650938E-1,-5.970139E-1,2.2691646E-1,7.1959484E-1,1.2647055E0,-6.623123E-2,-9.656696E-3,4.5598175E-2,-8.619346E-2,-5.906576E-1,3.1078333E-1,-9.057541E-3,-1.036242E0,1.1194698E-1,1.0560814E0,-8.222722E-2,1.2242206E-1,-8.1284994E-1,-1.0366108E-1,-6.012248E-1,-1.03815235E-1,2.6248044E-1,-9.385113E-1,2.2565835E0,7.451695E-2,1.1113704E0,-1.1901428E-1,8.597868E-1,1.2803482E-1,2.6170486E-1,-1.05533816E-1,6.8536884E-1,-9.939074E-2,-1.0379064E-1,-4.272809E-2,3.435347E-1,-1.0965977E0,6.181723E-1,1.235255E0,-1.02066696E-1,-2.1176659E-2,-6.6967E-2,3.3049265E-1,3.169605E-1,6.189756E-3,-5.153839E-2,-1.04759805E-1,4.2969725E-1,1.5335798E-1,-8.8462286E-2,3.6375873E-2,5.9358753E-2,1.2448056E-1,1.08739935E-1,1.7475551E-3,-5.6378093E-2,9.102743E-2,1.7456311E-1,8.2729785E-3,1.3724682E-1,1.8702826E-2,-2.3804126E-2,-1.1173763E-1,1.3156304E-1,-1.224061E-1,9.515958E-2,1.3524455E-1],"categories":[],"categories_nodes":[],"categories_segments":[],"categories_sizes":[],"default_left":[0,0,0,0,0,0,0,0,0,0,0,0,0,0,0,0,0,0,0,0,0,0,0,0,0,0,0,0,0,0,0,0,0,0,0,0,0,0,0,0,0,0,0,0,0,0,0,0,0,0,0,0,0,0,0,0,0,0,0,0,0,0,0,0,0,0,0,0,0,0,0,0,0,0,0,0,0,0,0,0,0,0,0,0,0,0,0,0,0,0,0,0,0,0,0,0,0,0,0,0,0,0,0,0,0,0,0,0,0,0,0,0,0,0,0,0,0,0,0,0,0,0,0],"id":12,"left_children":[1,3,5,7,9,-1,11,13,15,17,19,21,23,-1,25,27,29,-1,31,33,-1,35,-1,37,-1,39,41,43,-1,45,47,49,51,-1,-1,53,-1,-1,-1,55,-1,57,-1,59,61,-1,-1,63,-1,65,67,69,-1,-1,71,73,75,77,79,81,83,-1,-1,-1,-1,85,87,-1,89,91,93,-1,-1,95,-1,97,-1,99,101,103,105,107,-1,109,-1,111,-1,113,-1,-1,-1,115,117,119,121,-1,-1,-1,-1,-1,-1,-1,-1,-1,-1,-1,-1,-1,-1,-1,-1,-1,-1,-1,-1,-1,-1,-1,-1,-1,-1,-1,-1],"loss_changes":[6.634453E2,2.659414E2,1.7159021E3,8.130859E1,2.6365405E2,0E0,7.682129E0,4.761328E1,9.202937E2,1.9577222E2,4.144681E2,1.7095947E0,2.9485123E1,0E0,1.4531348E2,2.383133E1,8.76709E-1,0E0,1.8973637E2,8.7561035E-1,0E0,2.6581795E1,0E0,1.4138031E-1,0E0,2.3575195E1,2.3010712E2,9.721436E0,0E0,1.3357357E0,2.2851562E-1,9.225369E1,1.096525E2,0E0,0E0,5.5589294E-1,0E0,0E0,0E0,5.0681885E1,0E0,1.24909775E2,0E0,3.410797E0,1.4929998E-1,0E0,0E0,2.2965906E0,0E0,4.096579E1,1.5309143E0,5.277231E1,0E0,0E0,1.1842289E1,1.353125E1,5.3832703E1,1.4316327E2,9.141397E1,1.4819896E1,1.1947632E-1,0E0,0E0,0E0,0E0,4.9872616E1,4.201087E1,0E0,2.0904541E-2,6.959265E1,5.3610077E0,0E0,0E0,4.0840057E1,0E0,2.0619586E2,0E0,8.0993774E1,1.5554352E1,2.3864899E1,7.7010216E1,3.3104134E-1,0E0,1.9385066E0,0E0,2.4595524E1,0E0,4.22154E1,0E0,0E0,0E0,3.3286026E1,4.477272E-1,3.3303917E1,5.211258E-1,0E0,0E0,0E0,0E0,0E0,0E0,0E0,0E0,0E0,0E0,0E0,0E0,0E0,0E0,0E0,0E0,0E0,0E0,0E0,0E0,0E0,0E0,0E0,0E0,0E0,0E0,0E0,0E0],"parents":[2147483647,0,0,1,1,2,2,3,3,4,4,6,6,7,7,8,8,9,9,10,10,11,11,12,12,14,14,15,15,16,16,18,18,19,19,21,21,23,23,25,25,26,26,27,27,29,29,30,30,31,31,32,32,35,35,39,39,41,41,43,43,44,44,47,47,49,49,50,50,51,51,54,54,55,55,56,56,57,57,58,58,59,59,60,60,65,65,66,66,68,68,69,69,70,70,73,73,75,75,77,77,78,78,79,79,80,80,81,81,83,83,85,85,87,87,91,91,92,92,93,93,94,94],"right_children":[2,4,6,8,10,-1,12,14,16,18,20,22,24,-1,26,28,30,-1,32,34,-1,36,-1,38,-1,40,42,44,-1,46,48,50,52,-1,-1,54,-1,-1,-1,56,-1,58,-1,60,62,-1,-1,64,-1,66,68,70,-1,-1,72,74,76,78,80,82,84,-1,-1,-1,-1,86,88,-1,90,92,94,-1,-1,96,-1,98,-1,100,102,104,106,108,-1,110,-1,112,-1,114,-1,-1,-1,116,118,120,122,-1,-1,-1,-1,-1,-1,-1,-1,-1,-1,-1,-1,-1,-1,-1,-1,-1,-1,-1,-1,-1,-1,-1,-1,-1,-1,-1,-1],"split_conditions":[7.513217E5,4.07E2,7.31114E5,1E0,1E0,-1.0351052E-1,3.9909E2,1E0,4.73791E3,1E0,4.73791E3,1.0494921E6,4.73791E3,-1.03788614E-1,1.06159E5,2.11433E3,5.2883E2,-1.0371687E-1,5.3198E4,3.9909E2,-1.0308571E-1,1.1064261E6,1.3073818E-1,9.5E1,-9.401153E-2,1.0348134E5,3.9909E2,3.9909E2,-8.7037124E-2,9.289553E4,8E0,5.150478E4,3.9909E2,1.3094258E-1,1.8506091E-2,1.1104022E6,-9.3778655E-2,3.401813E-2,1.2822887E-1,1.2296E4,-1.0356579E-1,2.11845E5,-1.0356902E-1,1.1674E4,3.66307E3,3.67175E-2,-7.132046E-2,2.11433E3,-1.0315205E-1,1.26698E4,5.431915E4,2.6162775E5,-1.02442026E-1,1.2964651E-1,1E0,1.19244E4,3.9909E2,1.8009111E5,2.5295583E5,1.163908E4,2E1,-6.623123E-2,-9.656696E-3,4.5598175E-2,-8.619346E-2,1.163908E4,3.9909E2,-9.057541E-3,5.2484E4,2.5975808E5,3.29672E5,-8.222722E-2,1.2242206E-1,1.18E2,-1.0366108E-1,8.390837E4,-1.03815235E-1,1.1872566E5,2.1325181E5,2.2748867E5,2.6162775E5,1.481E3,-1.1901428E-1,2.6330084E5,1.2803482E-1,3.04E2,-1.05533816E-1,2.998922E4,-9.939074E-2,-1.0379064E-1,-4.272809E-2,7.964503E4,2.7287166E5,3.2927856E5,4.16141E5,-1.02066696E-1,-2.1176659E-2,-6.6967E-2,3.3049265E-1,3.169605E-1,6.189756E-3,-5.153839E-2,-1.04759805E-1,4.2969725E-1,1.5335798E-1,-8.8462286E-2,3.6375873E-2,5.9358753E-2,1.2448056E-1,1.08739935E-1,1.7475551E-3,-5.6378093E-2,9.102743E-2,1.7456311E-1,8.2729785E-3,1.3724682E-1,1.8702826E-2,-2.3804126E-2,-1.1173763E-1,1.3156304E-1,-1.224061E-1,9.515958E-2,1.3524455E-1],"split_indices":[1,0,2,10,10,0,3,7,5,7,5,2,5,0,2,4,1,0,2,3,0,1,0,0,0,1,3,3,0,4,0,1,3,0,0,5,0,0,0,2,0,2,0,2,1,0,0,4,0,2,5,2,0,0,7,1,3,1,1,1,0,0,0,0,0,1,3,0,2,1,2,0,0,2,0,2,0,1,1,1,2,2,0,1,0,2,0,1,0,0,0,1,5,1,2,0,0,0,0,0,0,0,0,0,0,0,0,0,0,0,0,0,0,0,0,0,0,0,0,0,0,0,0],"split_type":[0,0,0,0,0,0,0,0,0,0,0,0,0,0,0,0,0,0,0,0,0,0,0,0,0,0,0,0,0,0,0,0,0,0,0,0,0,0,0,0,0,0,0,0,0,0,0,0,0,0,0,0,0,0,0,0,0,0,0,0,0,0,0,0,0,0,0,0,0,0,0,0,0,0,0,0,0,0,0,0,0,0,0,0,0,0,0,0,0,0,0,0,0,0,0,0,0,0,0,0,0,0,0,0,0,0,0,0,0,0,0,0,0,0,0,0,0,0,0,0,0,0,0],"sum_hessian":[3.7740312E4,3.6228035E4,1.5122762E3,3.3561094E4,2.6669412E3,1.0177343E3,4.9454196E2,3.1512404E4,2.0486907E3,2.3633462E3,3.0359515E2,4.6426608E2,3.0275879E1,1.8928912E4,1.2583493E4,2.1643039E2,1.8322601E3,1.3020559E3,1.0612902E3,1.6162585E2,1.419693E2,9.759778E1,3.666683E2,2.2874584E1,7.4012947E0,1.0941412E4,1.6420804E3,2.113932E2,5.037184E0,3.0682764E0,1.8291919E3,6.668884E2,3.9440173E2,1.605721E2,1.0537496E0,9.227051E1,5.3272686E0,1.0306149E0,2.184397E1,4.0561533E3,6.8852593E3,7.809905E2,8.610899E2,2.0869841E2,2.6947904E0,1.065929E0,2.0023475E0,5.7721705E0,1.8234197E3,2.077869E2,4.5910153E2,3.233606E2,7.104112E1,7.100619E1,2.126432E1,2.8401267E3,1.2160265E3,4.8591507E2,2.950754E2,1.7039843E1,1.9165857E2,1.6519356E0,1.0428548E0,1.0292294E0,4.742941E0,1.242194E2,8.35675E1,1.9198629E0,4.5718167E2,2.4630211E2,7.70585E1,2.586522E0,1.86778E1,3.2767233E2,2.5124543E3,7.6195856E2,4.540679E2,1.3823387E2,3.4768118E2,1.9644295E1,2.754311E2,1.4486119E1,2.553723E0,9.2102165E0,1.8244835E2,4.398134E1,8.023806E1,6.5295425E1,1.827207E1,4.5523306E2,1.9486005E0,2.072949E2,3.9007202E1,2.3666508E1,5.339199E1,2.4297037E2,8.470199E1,7.496514E2,1.2307147E1,7.9667497E0,1.3026712E2,7.243679E1,2.7524442E2,3.8463335E0,1.5797962E1,6.3338642E1,2.1209247E2,4.084623E0,1.0401496E1,7.021791E0,2.1884258E0,1.9408867E1,2.4572472E1,2.2975857E1,4.231957E1,2.6342144E1,1.8095276E2,1.2160745E0,3.779113E1,1.7374487E1,6.2920218E0,1.8275724E1,3.511627E1],"tree_param":{"num_deleted":"0","num_feature":"11","num_nodes":"123","size_leaf_vector":"1"}},{"base_weights":[-9.345447E-1,-9.615956E-1,-2.8954768E-1,-9.866289E-1,-6.509657E-1,-1.0310636E-1,1.194322E0,-9.992006E-1,-7.930352E-1,-7.608095E-1,2.0736882E-1,4.0278396E-1,1.2142311E0,-1.0341405E-1,-9.4696015E-1,1.1057714E0,-1.0249047E0,-1.03335105E-1,-4.390646E-1,1.2636204E0,-1.02642715E-1,1.1085769E-1,-1.5410216E-1,1.2533389E-1,9.6032745E-1,-1.0007522E0,-7.0205504E-1,1.1558399E0,-8.5554704E-2,-3.2296178E-1,-1.0259664E0,-7.312769E-1,1.525717E-1,1.2701221E-1,1.7499767E-2,-9.221028E-2,9.525015E-2,-9.573265E-2,1.2446382E0,-8.982835E-1,-1.032262E-1,-4.3115488E-1,-1.0322707E-1,1.1804286E0,-5.113571E-1,3.6255788E-2,-6.973132E-2,-5.7009083E-1,-1.0271226E0,-2.65685E-1,-1.0436135E-1,4.1166314E-1,-1.0178979E-1,3.7971903E-2,1.2588401E-1,-1.017992E0,-6.97431E-1,3.6856258E0,-4.6760887E-1,7.670344E-1,1.2336681E0,-6.451286E-2,-9.199566E-3,4.3119144E-2,-8.455327E-2,-1.0312442E-1,-8.831787E-1,-5.5296E-1,3.4917444E-1,2.321422E-1,1.1752661E0,8.062183E-2,-1.0290588E0,-5.167712E-1,-1.0340922E-1,6.2255675E-1,2.214633E0,-7.058704E-1,2.0202678E-1,1.0868273E0,-1.2380519E-1,7.9051363E-1,1.2475189E-1,-2.2878826E-1,-1.0109832E-1,1.8160393E-2,-1.052619E-1,6.5583825E-1,-9.737983E-2,1.258101E0,5.9105596E-3,8.898346E-1,1.2972595E-1,-7.2054274E-2,3.039446E-1,-7.723249E-2,-1.03261106E-1,-5.9167493E-2,2.8040978E-1,-4.427014E-2,5.0107104E-1,-2.4693405E-2,-9.663289E-2,1.3929069E-1,1.6987458E-3,5.0584193E-2,1.194603E-1,9.733578E-2,4.981024E-3,1.3903336E-1,-8.996636E-2,-7.327304E-2,4.4180166E-2,2.1630955E-1,3.004737E-2,9.917151E-2,2.0027816E-1,-1.03541516E-1,4.0618118E-2,1.17950216E-1,-1.3771313E-1],"categories":[],"categories_nodes":[],"categories_segments":[],"categories_sizes":[],"default_left":[0,0,0,0,0,0,0,0,0,0,0,0,0,0,0,0,0,0,0,0,0,0,0,0,0,0,0,0,0,0,0,0,0,0,0,0,0,0,0,0,0,0,0,0,0,0,0,0,0,0,0,0,0,0,0,0,0,0,0,0,0,0,0,0,0,0,0,0,0,0,0,0,0,0,0,0,0,0,0,0,0,0,0,0,0,0,0,0,0,0,0,0,0,0,0,0,0,0,0,0,0,0,0,0,0,0,0,0,0,0,0,0,0,0,0,0,0,0,0,0,0],"id":13,"left_children":[1,3,5,7,9,-1,11,13,15,17,19,21,23,-1,25,27,29,-1,31,33,-1,-1,35,-1,37,39,41,43,-1,45,47,49,51,-1,-1,-1,-1,-1,53,55,-1,57,-1,59,61,-1,-1,63,65,67,-1,69,-1,-1,-1,71,73,75,77,79,81,-1,-1,-1,-1,-1,83,85,87,89,91,93,95,97,-1,-1,99,101,103,105,-1,107,-1,109,-1,111,-1,113,-1,115,117,119,-1,-1,-1,-1,-1,-1,-1,-1,-1,-1,-1,-1,-1,-1,-1,-1,-1,-1,-1,-1,-1,-1,-1,-1,-1,-1,-1,-1,-1],"loss_changes":[6.0028125E2,2.5623633E2,1.5272605E3,7.360547E1,2.3271619E2,0E0,6.8008423E0,5.1408203E1,8.239647E2,1.913197E2,3.67017E2,5.22001E0,3.2720947E0,0E0,1.5099023E2,2.1008255E1,9.102783E-1,0E0,1.7380629E2,8.510437E-1,0E0,0E0,7.727053E0,0E0,3.632346E1,2.9546875E1,1.8535388E2,8.770233E0,0E0,1.2730368E0,2.9101562E-1,9.754773E1,1.01401855E2,0E0,0E0,0E0,0E0,0E0,2.1665192E-1,5.2848022E1,0E0,1.7321075E2,0E0,3.381134E0,1.4222133E-1,0E0,0E0,2.1446943E0,7.2753906E-2,4.8136635E1,0E0,3.7199203E1,0E0,0E0,0E0,1.702539E1,5.02518E1,2.4106613E1,1.8099852E2,1.7425047E1,7.2906494E-2,0E0,0E0,0E0,0E0,0E0,4.210148E0,5.2920902E1,3.5954163E1,5.1651443E1,6.488724E-1,3.7332073E1,4.605713E-1,1.3732573E2,0E0,0E0,6.1471874E1,9.972659E1,6.570021E1,7.8328323E-1,0E0,1.02946E0,0E0,1.2080051E1,0E0,2.8154484E1,0E0,3.7520798E1,0E0,5.989628E0,7.684775E1,1.389746E1,0E0,0E0,0E0,0E0,0E0,0E0,0E0,0E0,0E0,0E0,0E0,0E0,0E0,0E0,0E0,0E0,0E0,0E0,0E0,0E0,0E0,0E0,0E0,0E0,0E0,0E0,0E0,0E0,0E0],"parents":[2147483647,0,0,1,1,2,2,3,3,4,4,6,6,7,7,8,8,9,9,10,10,11,11,12,12,14,14,15,15,16,16,18,18,19,19,22,22,24,24,25,25,26,26,27,27,29,29,30,30,31,31,32,32,38,38,39,39,41,41,43,43,44,44,47,47,48,48,49,49,51,51,55,55,56,56,57,57,58,58,59,59,60,60,66,66,67,67,68,68,69,69,70,70,71,71,72,72,73,73,76,76,77,77,78,78,79,79,81,81,83,83,85,85,87,87,89,89,90,90,91,91],"right_children":[2,4,6,8,10,-1,12,14,16,18,20,22,24,-1,26,28,30,-1,32,34,-1,-1,36,-1,38,40,42,44,-1,46,48,50,52,-1,-1,-1,-1,-1,54,56,-1,58,-1,60,62,-1,-1,64,66,68,-1,70,-1,-1,-1,72,74,76,78,80,82,-1,-1,-1,-1,-1,84,86,88,90,92,94,96,98,-1,-1,100,102,104,106,-1,108,-1,110,-1,112,-1,114,-1,116,118,120,-1,-1,-1,-1,-1,-1,-1,-1,-1,-1,-1,-1,-1,-1,-1,-1,-1,-1,-1,-1,-1,-1,-1,-1,-1,-1,-1,-1,-1],"split_conditions":[7.513217E5,4.07E2,7.31114E5,1E0,1E0,-1.0310636E-1,1.8E1,1E0,4.73791E3,1E0,4.73791E3,2.11433E3,8.2867275E5,-1.0341405E-1,6.979295E4,2.11433E3,5.2883E2,-1.03335105E-1,7.116233E4,3.9909E2,-1.02642715E-1,1.1085769E-1,1E0,1.2533389E-1,1E0,6.593738E4,3.9909E2,3.9909E2,-8.5554704E-2,4.5E1,8E0,7.086414E4,3.9909E2,1.2701221E-1,1.7499767E-2,-9.221028E-2,9.525015E-2,-9.573265E-2,1.934639E6,1.72046E3,-1.032262E-1,8.32013E4,-1.0322707E-1,2.0214E4,3.66307E3,3.6255788E-2,-6.973132E-2,5.769575E4,3.049062E5,2.276686E4,-1.0436135E-1,3.29672E5,-1.0178979E-1,3.7971903E-2,1.2588401E-1,5.2883E2,3.9909E2,7.453048E4,2.11845E5,2.052003E4,1.8E1,-6.451286E-2,-9.199566E-3,4.3119144E-2,-8.455327E-2,-1.0312442E-1,2.11433E3,2.215323E4,3.9909E2,1.2074291E5,4.16141E5,5E1,1.55806E3,5.2484E4,-1.0340922E-1,6.2255675E-1,7.503424E4,1.8009111E5,2.7466684E5,1.481E3,-1.2380519E-1,2.6330084E5,1.2475189E-1,3.9909E2,-1.0109832E-1,3.04E2,-1.052619E-1,3.471008E4,-9.737983E-2,1.06159E5,1.2417671E5,4.1925247E5,1.2972595E-1,-7.2054274E-2,3.039446E-1,-7.723249E-2,-1.03261106E-1,-5.9167493E-2,2.8040978E-1,-4.427014E-2,5.0107104E-1,-2.4693405E-2,-9.663289E-2,1.3929069E-1,1.6987458E-3,5.0584193E-2,1.194603E-1,9.733578E-2,4.981024E-3,1.3903336E-1,-8.996636E-2,-7.327304E-2,4.4180166E-2,2.1630955E-1,3.004737E-2,9.917151E-2,2.0027816E-1,-1.03541516E-1,4.0618118E-2,1.17950216E-1,-1.3771313E-1],"split_indices":[1,0,2,10,10,0,0,7,5,7,5,4,4,0,2,4,1,0,2,3,0,0,7,0,7,1,3,3,0,0,0,1,3,0,0,0,0,0,5,2,0,1,0,2,1,0,0,1,2,2,0,2,0,0,0,1,3,1,2,1,0,0,0,0,0,0,4,1,3,1,2,2,1,2,0,0,2,1,1,2,0,1,0,3,0,2,0,1,0,2,2,1,0,0,0,0,0,0,0,0,0,0,0,0,0,0,0,0,0,0,0,0,0,0,0,0,0,0,0,0,0],"split_type":[0,0,0,0,0,0,0,0,0,0,0,0,0,0,0,0,0,0,0,0,0,0,0,0,0,0,0,0,0,0,0,0,0,0,0,0,0,0,0,0,0,0,0,0,0,0,0,0,0,0,0,0,0,0,0,0,0,0,0,0,0,0,0,0,0,0,0,0,0,0,0,0,0,0,0,0,0,0,0,0,0,0,0,0,0,0,0,0,0,0,0,0,0,0,0,0,0,0,0,0,0,0,0,0,0,0,0,0,0,0,0,0,0,0,0,0,0,0,0,0,0],"sum_hessian":[3.4419453E4,3.303355E4,1.3859048E3,3.0567941E4,2.4656086E3,9.2431396E2,4.6159085E2,2.870004E4,1.8679017E3,2.185976E3,2.7963254E2,1.1846263E1,4.4974457E2,1.7186465E4,1.1513574E4,2.0286311E2,1.6650386E3,1.1822834E3,1.00369275E3,1.5064302E2,1.2898953E2,4.7877E0,7.0585623E0,3.863071E2,6.343748E1,9.437575E3,2.075999E3,1.982138E2,4.649314E0,2.9755268E0,1.6620631E3,6.717004E2,3.319924E2,1.4958293E2,1.06008E0,4.265184E0,2.7933784E0,7.885205E0,5.5552277E1,2.2265168E3,7.2110586E3,1.1416913E3,9.3430774E2,1.9562067E2,2.5931447E0,1.0620973E0,1.9134296E0,5.454457E0,1.6566086E3,2.7042923E2,4.0127112E2,2.723534E2,5.9639E1,1.3455112E0,5.4206764E1,1.392509E3,8.340077E2,9.142287E0,1.132549E3,2.4076714E1,1.7154395E2,1.5578494E0,1.0352952E0,1.0547591E0,4.3996973E0,1.6045029E3,5.210572E1,1.8438258E2,8.604665E1,2.215675E2,5.0785896E1,1.3824698E1,1.3786843E3,5.444036E2,2.89604E2,2.1674907E0,6.9747963E0,8.352917E2,2.972573E2,2.1159874E1,2.916841E0,6.9592204E0,1.6458473E2,8.969556E0,4.313616E1,8.648833E1,9.789425E1,7.026384E1,1.5782819E1,3.9206264E1,1.8236125E2,1.769005E1,3.3095848E1,1.1474272E1,2.3504267E0,2.1795918E1,1.3568884E3,5.331989E2,1.1204712E1,4.0076647E0,2.9671316E0,3.0312448E2,5.321672E2,3.9098526E1,2.5815878E2,4.2019463E0,1.6957928E1,5.329519E0,1.629702E0,2.313538E0,6.656018E0,3.0932264E1,5.5556065E1,1.2434917E1,5.782892E1,3.0593975E1,8.61229E0,5.019346E1,1.3216779E2,1.611111E1,1.5789397E0],"tree_param":{"num_deleted":"0","num_feature":"11","num_nodes":"121","size_leaf_vector":"1"}},{"base_weights":[-9.2707443E-1,-9.54063E-1,-2.863757E-1,-9.7997177E-1,-6.3737893E-1,-1.0273714E-1,1.1583076E0,-9.924816E-1,-7.8741E-1,-4.068168E-1,-1.0286915E-1,3.9159596E-1,1.1778142E0,-1.03077434E-1,-9.3572205E-1,1.0692608E0,-1.0206145E0,-8.331015E-1,4.438567E-1,1.060428E-1,-1.4701103E-1,1.21434845E-1,9.2827535E-1,-9.940249E-1,-6.77757E-1,1.1178099E0,-8.405966E-2,-3.070041E-1,-1.0217752E0,-9.9844503E-1,-5.611526E-1,1.2244108E0,1.4615151E-1,-9.005759E-2,9.152086E-2,-9.4024025E-2,1.2079898E0,-8.832364E-1,-1.0285457E-1,-4.0581957E-1,-1.0286758E-1,1.1424248E0,-4.9451178E-1,3.5068404E-2,-6.852091E-2,-5.4652315E-1,-1.0230418E0,7.3789364E-1,-1.0146894E0,5.6198105E-2,-1.0469645E-1,1.2559962E0,7.346653E-1,-2.8398815E-1,5.503122E-1,2.0633368E-2,1.2247642E-1,-1.0095284E0,-6.666372E-1,-6.0610527E-1,2.5413704E-1,7.282536E-1,1.1968914E0,-6.28349E-2,-8.764095E-3,4.6442878E-2,-8.367147E-2,-1.02756E-1,-8.6771923E-1,-6.0021188E-2,1.9111347E-1,-5.446273E-1,-1.0304723E-1,6.203818E-1,-1.01250105E-1,1.21565245E-1,1.8924162E0,-3.5345115E-2,1.6440849E-1,4.452066E-1,-1.08124934E-1,3.3873194E-1,1.102325E0,6.510542E-2,-1.0212579E0,-4.7240627E-1,-1.0300962E-1,1.0890114E0,-7.0922214E-1,2.1395533E0,1.3647033E-1,1.0383466E0,-1.1788231E-1,7.501286E-1,1.21144846E-1,-2.1022798E-1,-1.005486E-1,-9.7915195E-2,9.1072077E-1,3.049638E-1,1.3674303E0,3.6376562E-2,2.3956235E-1,-6.832122E-1,1.17199354E-1,3.150885E-2,1.1863447E0,5.7775354E-1,-1.1370641E-1,8.1510216E-1,1.2292751E-1,-6.974292E-2,2.2036724E-1,-7.440268E-2,-1.0281377E-1,2.7329335E-1,-5.3780723E-2,5.7614237E-2,3.528863E-1,-4.4468876E-2,-1.0329677E-1,5.7843626E-3,2.3782626E-1,-6.4986534E-3,1.1471202E-1,4.6545886E-2,1.15305476E-1,9.310964E-2,4.6738163E-3,1.1737304E-1,-8.8688664E-2,1.5116538E-1,-5.782891E-2,9.146974E-2,-1.05552495E-1,1.0321635E-1,2.160772E-1,-1.9098805E-2,-9.033112E-2,8.5844666E-2,-1.133801E-1,1.859454E-1,8.449047E-2,1.4777964E-1,3.714532E-2,1.11761525E-1,-1.2706898E-1],"categories":[],"categories_nodes":[],"categories_segments":[],"categories_sizes":[],"default_left":[0,0,0,0,0,0,0,0,0,0,0,0,0,0,0,0,0,0,0,0,0,0,0,0,0,0,0,0,0,0,0,0,0,0,0,0,0,0,0,0,0,0,0,0,0,0,0,0,0,0,0,0,0,0,0,0,0,0,0,0,0,0,0,0,0,0,0,0,0,0,0,0,0,0,0,0,0,0,0,0,0,0,0,0,0,0,0,0,0,0,0,0,0,0,0,0,0,0,0,0,0,0,0,0,0,0,0,0,0,0,0,0,0,0,0,0,0,0,0,0,0,0,0,0,0,0,0,0,0,0,0,0,0,0,0,0,0,0,0,0,0,0,0,0,0,0,0],"id":14,"left_children":[1,3,5,7,9,-1,11,13,15,17,-1,19,21,-1,23,25,27,29,31,-1,33,-1,35,37,39,41,-1,43,45,47,49,51,53,-1,-1,-1,55,57,-1,59,-1,61,63,-1,-1,65,67,69,71,73,-1,75,77,79,81,-1,-1,83,85,87,89,91,93,-1,-1,-1,-1,-1,95,-1,-1,97,-1,99,-1,-1,101,103,-1,105,-1,107,109,111,113,115,-1,117,119,121,123,125,-1,127,-1,129,-1,-1,131,133,135,-1,-1,137,-1,139,141,143,-1,145,-1,-1,-1,-1,-1,-1,-1,-1,-1,-1,-1,-1,-1,-1,-1,-1,-1,-1,-1,-1,-1,-1,-1,-1,-1,-1,-1,-1,-1,-1,-1,-1,-1,-1,-1,-1,-1],"loss_changes":[5.4256055E2,2.4653516E2,1.3611183E3,6.629297E1,2.0537537E2,0E0,5.9870605E0,5.5851562E1,7.3861975E2,5.2144946E2,0E0,4.5491014E0,2.701355E0,0E0,1.5787988E2,1.8608932E1,9.403076E-1,4.2498352E1,1.1144161E2,0E0,6.934494E0,0E0,3.1385445E1,3.1969727E1,1.8533722E2,7.9574127E0,0E0,1.2073364E0,3.503418E-1,1.7509888E1,1.0933627E2,1.1266937E0,6.0803955E1,0E0,0E0,0E0,6.004944E-1,5.538623E1,0E0,1.4533228E2,0E0,3.2739105E0,1.3545877E-1,0E0,0E0,2.196633E0,1.6503906E-1,1.0703087E1,3.8096924E0,9.794683E1,0E0,8.588867E-1,7.36611E0,9.911346E1,2.067326E1,0E0,0E0,1.635962E1,5.3006714E1,1.481095E2,5.6596085E1,1.5365015E1,1.3739014E-1,0E0,0E0,0E0,0E0,0E0,4.226177E0,0E0,0E0,1.4336163E1,0E0,2.4620876E1,0E0,0E0,3.38941E0,5.986788E0,0E0,2.7348738E1,0E0,4.711869E1,8.024826E-1,2.582877E1,1.6739502E0,1.0538229E2,0E0,5.894383E1,6.764136E1,7.3137817E0,4.9433853E1,8.498535E-1,0E0,9.3686867E-1,0E0,1.0172642E1,0E0,0E0,5.711647E0,6.401021E1,6.0838165E0,0E0,0E0,3.633752E-1,0E0,5.7201664E1,5.776455E0,2.0621845E1,0E0,1.2864028E1,0E0,0E0,0E0,0E0,0E0,0E0,0E0,0E0,0E0,0E0,0E0,0E0,0E0,0E0,0E0,0E0,0E0,0E0,0E0,0E0,0E0,0E0,0E0,0E0,0E0,0E0,0E0,0E0,0E0,0E0,0E0,0E0,0E0,0E0,0E0,0E0,0E0],"parents":[2147483647,0,0,1,1,2,2,3,3,4,4,6,6,7,7,8,8,9,9,11,11,12,12,14,14,15,15,16,16,17,17,18,18,20,20,22,22,23,23,24,24,25,25,27,27,28,28,29,29,30,30,31,31,32,32,36,36,37,37,39,39,41,41,42,42,45,45,46,46,47,47,48,48,49,49,51,51,52,52,53,53,54,54,57,57,58,58,59,59,60,60,61,61,62,62,68,68,71,71,73,73,76,76,77,77,79,79,81,81,82,82,83,83,84,84,85,85,87,87,88,88,89,89,90,90,91,91,93,93,95,95,98,98,99,99,100,100,103,103,105,105,106,106,107,107,109,109],"right_children":[2,4,6,8,10,-1,12,14,16,18,-1,20,22,-1,24,26,28,30,32,-1,34,-1,36,38,40,42,-1,44,46,48,50,52,54,-1,-1,-1,56,58,-1,60,-1,62,64,-1,-1,66,68,70,72,74,-1,76,78,80,82,-1,-1,84,86,88,90,92,94,-1,-1,-1,-1,-1,96,-1,-1,98,-1,100,-1,-1,102,104,-1,106,-1,108,110,112,114,116,-1,118,120,122,124,126,-1,128,-1,130,-1,-1,132,134,136,-1,-1,138,-1,140,142,144,-1,146,-1,-1,-1,-1,-1,-1,-1,-1,-1,-1,-1,-1,-1,-1,-1,-1,-1,-1,-1,-1,-1,-1,-1,-1,-1,-1,-1,-1,-1,-1,-1,-1,-1,-1,-1,-1,-1],"split_conditions":[7.513217E5,4.07E2,7.31114E5,1E0,3.9909E2,-1.0273714E-1,1.8E1,1E0,4.73791E3,4.2692E4,-1.0286915E-1,2.11433E3,8.9263706E5,-1.03077434E-1,6.979295E4,2.11433E3,5.2883E2,1.481E3,8.519751E4,1.060428E-1,1E0,1.21434845E-1,1E0,6.593738E4,3.9909E2,3.9909E2,-8.405966E-2,9.289553E4,8E0,1.7435E2,4.169179E4,5.871445E4,1.28411E5,-9.005759E-2,9.152086E-2,-9.4024025E-2,9.3296225E5,3.011E3,-1.0285457E-1,2.37104E5,-1.0286758E-1,2.0214E4,3.66307E3,3.5068404E-2,-6.852091E-2,2.11433E3,3.049062E5,1E0,1.21411E3,1E0,-1.0469645E-1,4.73791E3,5.95E2,1.2859007E5,3.29672E5,2.0633368E-2,1.2247642E-1,5.2883E2,3.9909E2,1.0348134E5,2.6707462E5,2.052003E4,1.8E1,-6.28349E-2,-8.764095E-3,4.6442878E-2,-8.367147E-2,-1.02756E-1,2.11433E3,-6.0021188E-2,1.9111347E-1,3.04E2,-1.0304723E-1,2.276686E4,-1.01250105E-1,1.21565245E-1,5.45E2,7.116233E4,1.6440849E-1,8.390837E4,-1.08124934E-1,3.2927856E5,4.16141E5,5E1,2.25282E3,9.58384E3,-1.0300962E-1,9.26009E4,2.3670419E5,3.7E1,5.1220306E5,1.481E3,-1.1788231E-1,